<?xml version="1.0"?>
<opencv_storage>
<cascade>
  <stageType>BOOST</stageType>
  <featureType>LBP</featureType>
  <height>16</height>
  <width>44</width>
  <stageParams>
    <boostType>GAB</boostType>
    <minHitRate>9.9500000476837158e-01</minHitRate>
    <maxFalseAlarm>4.4999998807907104e-01</maxFalseAlarm>
    <weightTrimRate>9.4999999999999996e-01</weightTrimRate>
    <maxDepth>1</maxDepth>
    <maxWeakCount>100</maxWeakCount></stageParams>
  <featureParams>
    <maxCatCount>256</maxCatCount>
    <featSize>1</featSize></featureParams>
  <stageNum>12</stageNum>
  <stages>
    <!-- stage 0 -->
    <_>
      <maxWeakCount>3</maxWeakCount>
      <stageThreshold>-8.9822268486022949e-01</stageThreshold>
      <weakClassifiers>
        <_>
          <internalNodes>
            0 -1 49 -611788592 -573485032 -117253679 1594429461
            -1971287878 -22527862 -1979021157 -1626733427</internalNodes>
          <leafValues>
            -7.5738126039505005e-01 7.0481771230697632e-01</leafValues></_>
        <_>
          <internalNodes>
            0 -1 67 -6294750 -244874989 -2130526208 1938772839
            -148114893 268845060 855894827 1937767359</internalNodes>
          <leafValues>
            -8.3813470602035522e-01 5.8474522829055786e-01</leafValues></_>
        <_>
          <internalNodes>
            0 -1 11 -1677699056 -36618160 403725789 1595490577
            -1207940968 -7794569 -1911899905 -1154826022</internalNodes>
          <leafValues>
            -6.8870306015014648e-01 6.9729328155517578e-01</leafValues></_></weakClassifiers></_>
    <!-- stage 1 -->
    <_>
      <maxWeakCount>5</maxWeakCount>
      <stageThreshold>-1.1421134471893311e+00</stageThreshold>
      <weakClassifiers>
        <_>
          <internalNodes>
            0 -1 57 -1119506 -708121466 -612065092 -743202 -1193508626
            -23197524 -2118161 -2098177</internalNodes>
          <leafValues>
            -7.4267381429672241e-01 5.3053784370422363e-01</leafValues></_>
        <_>
          <internalNodes>
            0 -1 7 -1677572080 -1074181040 506615293 1597720656
            -1640363268 -1077966123 436928508 -1088695875</internalNodes>
          <leafValues>
            -7.4100035429000854e-01 4.8635581135749817e-01</leafValues></_>
        <_>
          <internalNodes>
            0 -1 23 -84414770 583066006 -931127296 575594756 54857728
            23068739 1263612160 -134220801</internalNodes>
          <leafValues>
            -6.7841631174087524e-01 5.1256632804870605e-01</leafValues></_>
        <_>
          <internalNodes>
            0 -1 44 -787854184 -573318064 789683645 488446228
            -1155351302 -2439010 -1375170676 -552942435</internalNodes>
          <leafValues>
            -6.5471035242080688e-01 5.3409981727600098e-01</leafValues></_>
        <_>
          <internalNodes>
            0 -1 53 -800595898 -621366522 -620510633 -749743337
            -1034952182 -928062974 6801775 1074262595</internalNodes>
          <leafValues>
            -7.0143872499465942e-01 4.8587721586227417e-01</leafValues></_></weakClassifiers></_>
    <!-- stage 2 -->
    <_>
      <maxWeakCount>5</maxWeakCount>
      <stageThreshold>-9.6150821447372437e-01</stageThreshold>
      <weakClassifiers>
        <_>
          <internalNodes>
            0 -1 40 -541371172 -589667 1602442749 -43619 -124991250
            2008760573 -123154482 -72627255</internalNodes>
          <leafValues>
            -6.7388784885406494e-01 5.1606619358062744e-01</leafValues></_>
        <_>
          <internalNodes>
            0 -1 8 -72646400 -80015225 394858760 -14727777 -1145332839
            -1145335621 992677307 -1077936129</internalNodes>
          <leafValues>
            -6.5934449434280396e-01 4.8057270050048828e-01</leafValues></_>
        <_>
          <internalNodes>
            0 -1 41 -1060918 -12000442 453118984 -549920786 1542418820
            352678917 1610051308 -2098177</internalNodes>
          <leafValues>
            -6.0796922445297241e-01 5.1345926523208618e-01</leafValues></_>
        <_>
          <internalNodes>
            0 -1 34 -1749417744 1364332732 1493720573 1595610484
            -1700261638 1970278583 1040904142 -74943796</internalNodes>
          <leafValues>
            -6.7741453647613525e-01 4.4649848341941833e-01</leafValues></_>
        <_>
          <internalNodes>
            0 -1 24 -1089741678 -6597552 1090668753 -1626320880
            -548872518 -5633400 184583099 -636825123</internalNodes>
          <leafValues>
            -5.6575518846511841e-01 5.3567945957183838e-01</leafValues></_></weakClassifiers></_>
    <!-- stage 3 -->
    <_>
      <maxWeakCount>6</maxWeakCount>
      <stageThreshold>-1.7560020685195923e+00</stageThreshold>
      <weakClassifiers>
        <_>
          <internalNodes>
            0 -1 22 -167773201 -2360353 -541076993 -10289 -251920405
            1082327050 -529793297 1083171531</internalNodes>
          <leafValues>
            -6.7891544103622437e-01 4.0690261125564575e-01</leafValues></_>
        <_>
          <internalNodes>
            0 -1 76 -2 998962142 -1148940788 1070267870 2035936504
            958419688 1975383548 2147483647</internalNodes>
          <leafValues>
            -6.8827730417251587e-01 4.0660688281059265e-01</leafValues></_>
        <_>
          <internalNodes>
            0 -1 16 4276 1431657684 1035952127 1571231228 -1733272834
            -15402508 446622687 -1163383595</internalNodes>
          <leafValues>
            -7.0099341869354248e-01 4.0688174962997437e-01</leafValues></_>
        <_>
          <internalNodes>
            0 -1 61 1195896586 2145385823 -2129967732 1339936015
            1338232714 1627381991 -82321841 2144329695</internalNodes>
          <leafValues>
            -6.2260180711746216e-01 4.3509158492088318e-01</leafValues></_>
        <_>
          <internalNodes>
            0 -1 26 -285737074 580841251 -2006785528 584047371
            1502441728 577284943 2135905038 1677721599</internalNodes>
          <leafValues>
            -6.5793162584304810e-01 3.7901020050048828e-01</leafValues></_>
        <_>
          <internalNodes>
            0 -1 52 -676619022 -573206503 453763057 487281681 -276129030
            -5726556 -1970630945 -1742028395</internalNodes>
          <leafValues>
            -5.5209952592849731e-01 4.6138554811477661e-01</leafValues></_></weakClassifiers></_>
    <!-- stage 4 -->
    <_>
      <maxWeakCount>7</maxWeakCount>
      <stageThreshold>-1.2151374816894531e+00</stageThreshold>
      <weakClassifiers>
        <_>
          <internalNodes>
            0 -1 66 -85 -211815617 -268444926 -739289265 -134221270
            1082119455 -208666710 1476395007</internalNodes>
          <leafValues>
            -7.2162574529647827e-01 3.6626848578453064e-01</leafValues></_>
        <_>
          <internalNodes>
            0 -1 1 -286265718 -999299098 -391593396 -523769430
            -404792576 1157058627 -244452604 -167772161</internalNodes>
          <leafValues>
            -6.0357534885406494e-01 4.5322033762931824e-01</leafValues></_>
        <_>
          <internalNodes>
            0 -1 60 -255793462 -70257709 -254351630 -70320397 1909288463
            -45121 -721424433 -754984085</internalNodes>
          <leafValues>
            -5.4790908098220825e-01 4.7318786382675171e-01</leafValues></_>
        <_>
          <internalNodes>
            0 -1 71 -33554436 -1812277562 2119891740 334164958
            2147349968 287338979 1936016656 2139095039</internalNodes>
          <leafValues>
            -7.0448672771453857e-01 3.6576277017593384e-01</leafValues></_>
        <_>
          <internalNodes>
            0 -1 78 -828176 -604415011 -1717332707 463297429 -361047880
            -623162369 -1433736440 -1163985015</internalNodes>
          <leafValues>
            -5.1334244012832642e-01 5.0787007808685303e-01</leafValues></_>
        <_>
          <internalNodes>
            0 -1 83 -68161830 799997919 -1356582888 -1113522566
            734945480 364392665 1400706424 -1</internalNodes>
          <leafValues>
            -5.3373581171035767e-01 4.6751043200492859e-01</leafValues></_>
        <_>
          <internalNodes>
            0 -1 20 -1103673124 -548322284 1074454045 1360249113
            1310589182 1429537920 -1979578680 1932215757</internalNodes>
          <leafValues>
            -6.9125539064407349e-01 3.8719448447227478e-01</leafValues></_></weakClassifiers></_>
    <!-- stage 5 -->
    <_>
      <maxWeakCount>7</maxWeakCount>
      <stageThreshold>-1.3708573579788208e+00</stageThreshold>
      <weakClassifiers>
        <_>
          <internalNodes>
            0 -1 70 -524289 1431323989 -39460867 1437687765 -45228340
            990927545 -270731060 -1</internalNodes>
          <leafValues>
            -5.7995080947875977e-01 4.9767187237739563e-01</leafValues></_>
        <_>
          <internalNodes>
            0 -1 9 655623184 -10511395 -4259843 -34268773 -540755556
            -1078503171 -604497410 -4583798</internalNodes>
          <leafValues>
            -6.1646574735641479e-01 3.9822673797607422e-01</leafValues></_>
        <_>
          <internalNodes>
            0 -1 48 -538188118 1608358907 1025101263 1604179967
            -597894689 224255963 1576926959 1574829791</internalNodes>
          <leafValues>
            -6.2925642728805542e-01 3.6492335796356201e-01</leafValues></_>
        <_>
          <internalNodes>
            0 -1 21 -939276798 -257753089 -489952064 -169349429
            1858071503 -94705729 -213130489 1088938791</internalNodes>
          <leafValues>
            -6.5357398986816406e-01 3.3915162086486816e-01</leafValues></_>
        <_>
          <internalNodes>
            0 -1 19 -552936270 523391216 -100696577 -543732683 -11891462
            523689429 -6100737 184703099</internalNodes>
          <leafValues>
            -6.0573673248291016e-01 3.5936927795410156e-01</leafValues></_>
        <_>
          <internalNodes>
            0 -1 28 -422589434 -423691488 -938504690 -490755185
            -318770933 1647010671 1467924480 1132459647</internalNodes>
          <leafValues>
            -6.4206576347351074e-01 3.4757497906684875e-01</leafValues></_>
        <_>
          <internalNodes>
            0 -1 69 -783944702 -214179085 1931721521 858993458
            -404040966 -17077 1668546218 -11028208</internalNodes>
          <leafValues>
            -5.5039256811141968e-01 3.7237152457237244e-01</leafValues></_></weakClassifiers></_>
    <!-- stage 6 -->
    <_>
      <maxWeakCount>7</maxWeakCount>
      <stageThreshold>-1.1579054594039917e+00</stageThreshold>
      <weakClassifiers>
        <_>
          <internalNodes>
            0 -1 13 -4272908 -571236 -1696923651 456132792 -83965188
            -12545 -1363481468 -318769923</internalNodes>
          <leafValues>
            -6.9065040349960327e-01 2.7564468979835510e-01</leafValues></_>
        <_>
          <internalNodes>
            0 -1 31 -581968114 -540299265 -1727069430 2142976778
            -287318193 -1055025 -22282321 -32965</internalNodes>
          <leafValues>
            -5.8724719285964966e-01 3.7282180786132812e-01</leafValues></_>
        <_>
          <internalNodes>
            0 -1 50 -6038341 -640165672 463208439 421485845 -269825286
            -33620748 -1708470305 -620048939</internalNodes>
          <leafValues>
            -4.1684821248054504e-01 5.3800636529922485e-01</leafValues></_>
        <_>
          <internalNodes>
            0 -1 3 -6430 -286266012 -287322898 -319895826 1606896711
            1948587903 1467434225 -184549377</internalNodes>
          <leafValues>
            -5.9499925374984741e-01 3.7343171238899231e-01</leafValues></_>
        <_>
          <internalNodes>
            0 -1 75 -1071192570 1138221878 -46664013 2005367587
            -352330769 -97783513 -905969969 1075299911</internalNodes>
          <leafValues>
            -6.4896816015243530e-01 3.2506215572357178e-01</leafValues></_>
        <_>
          <internalNodes>
            0 -1 85 -7340034 -1549099046 843056536 1000387532 1341479372
            730346793 2110204140 -68421681</internalNodes>
          <leafValues>
            -4.5823952555656433e-01 4.5764750242233276e-01</leafValues></_>
        <_>
          <internalNodes>
            0 -1 46 -402653794 -782245121 314947160 398323455 1436373236
            293425369 372627928 1946156991</internalNodes>
          <leafValues>
            -5.9321647882461548e-01 3.5472938418388367e-01</leafValues></_></weakClassifiers></_>
    <!-- stage 7 -->
    <_>
      <maxWeakCount>8</maxWeakCount>
      <stageThreshold>-1.6782619953155518e+00</stageThreshold>
      <weakClassifiers>
        <_>
          <internalNodes>
            0 -1 10 873553151 2004180213 -2228225 -58913 -1125475105
            -983116 -1090846721 -1157632065</internalNodes>
          <leafValues>
            -5.4920834302902222e-01 4.2633989453315735e-01</leafValues></_>
        <_>
          <internalNodes>
            0 -1 80 -681844738 1056975922 561003192 2146500470 214478076
            202376324 767075576 -131073</internalNodes>
          <leafValues>
            -5.7025521993637085e-01 3.7582042813301086e-01</leafValues></_>
        <_>
          <internalNodes>
            0 -1 55 -125150774 -8730 -545267713 -10494133 720038827
            1610612715 -270345237 -344997758</internalNodes>
          <leafValues>
            -5.1887893676757812e-01 4.0973290801048279e-01</leafValues></_>
        <_>
          <internalNodes>
            0 -1 38 -584001028 489741808 -42207235 503252372 -1657349640
            -1723926019 -1680196609 153796781</internalNodes>
          <leafValues>
            -6.3692367076873779e-01 3.1177058815956116e-01</leafValues></_>
        <_>
          <internalNodes>
            0 -1 82 -286265654 547679875 -1400445950 -1059936821
            930072066 1180585997 -258477310 1941960687</internalNodes>
          <leafValues>
            -6.5258508920669556e-01 3.1520101428031921e-01</leafValues></_>
        <_>
          <internalNodes>
            0 -1 30 -542221264 -64290 -115418115 -542109068 -1884628452
            -6644857 782818812 -1205688280</internalNodes>
          <leafValues>
            -5.6938469409942627e-01 3.5461488366127014e-01</leafValues></_>
        <_>
          <internalNodes>
            0 -1 18 -15734801 1032825246 -687726584 297774843
            -1498729557 66534254 1715609562 1946157055</internalNodes>
          <leafValues>
            -5.5432200431823730e-01 3.2321223616600037e-01</leafValues></_>
        <_>
          <internalNodes>
            0 -1 35 -1065096062 -84943881 -570294785 -1045448925
            -353914625 -128196145 -273751377 -2113150457</internalNodes>
          <leafValues>
            -4.6718406677246094e-01 4.1839256882667542e-01</leafValues></_></weakClassifiers></_>
    <!-- stage 8 -->
    <_>
      <maxWeakCount>9</maxWeakCount>
      <stageThreshold>-1.8586442470550537e+00</stageThreshold>
      <weakClassifiers>
        <_>
          <internalNodes>
            0 -1 62 -1039938489 -36489 -348127361 -513 -88084689
            -3411553 -285475073 -230950913</internalNodes>
          <leafValues>
            -5.2433896064758301e-01 4.3869677186012268e-01</leafValues></_>
        <_>
          <internalNodes>
            0 -1 47 -68160017 -67112461 -269750015 -1576601 -69209890
            289042673 -271590433 2012741631</internalNodes>
          <leafValues>
            -5.0064951181411743e-01 4.2426300048828125e-01</leafValues></_>
        <_>
          <internalNodes>
            0 -1 74 -1 2003850580 -1108279300 389044597 2136800716
            1027633524 517520350 -4194305</internalNodes>
          <leafValues>
            -4.2682534456253052e-01 4.7421252727508545e-01</leafValues></_>
        <_>
          <internalNodes>
            0 -1 58 -1213068112 -536915939 -1080057863 1595874817
            -433959436 -5054980 -341144337 -550875515</internalNodes>
          <leafValues>
            -5.4924941062927246e-01 3.6996433138847351e-01</leafValues></_>
        <_>
          <internalNodes>
            0 -1 17 -570425850 991534916 855818035 2063621960 1785546766
            1062771928 -32834882 -11535521</internalNodes>
          <leafValues>
            -5.3338468074798584e-01 3.7742823362350464e-01</leafValues></_>
        <_>
          <internalNodes>
            0 -1 65 1755451637 -1953609758 -4228609 -37791274
            -1466384897 -1348535297 -1161896257 -1549632026</internalNodes>
          <leafValues>
            -4.7544640302658081e-01 3.8450938463211060e-01</leafValues></_>
        <_>
          <internalNodes>
            0 -1 6 -232593430 -1307839544 -1343531197 1094448996
            -90448405 -299175006 -348390929 1076097603</internalNodes>
          <leafValues>
            -6.0394722223281860e-01 3.0843117833137512e-01</leafValues></_>
        <_>
          <internalNodes>
            0 -1 29 -8394754 1073531900 196423260 755082090 2111333900
            2034519740 836572127 -9</internalNodes>
          <leafValues>
            -4.8120620846748352e-01 3.7419813871383667e-01</leafValues></_>
        <_>
          <internalNodes>
            0 -1 25 -137374758 319557367 -568726642 64821167 861795555
            14684406 -1354713171 464377851</internalNodes>
          <leafValues>
            -5.6392318010330200e-01 3.4628465771675110e-01</leafValues></_></weakClassifiers></_>
    <!-- stage 9 -->
    <_>
      <maxWeakCount>9</maxWeakCount>
      <stageThreshold>-1.1646637916564941e+00</stageThreshold>
      <weakClassifiers>
        <_>
          <internalNodes>
            0 -1 14 -1 -76292 -857749057 -593901347 -290799697 -1090401
            -1999699413 -1963987201</internalNodes>
          <leafValues>
            -5.4174631834030151e-01 3.7251868844032288e-01</leafValues></_>
        <_>
          <internalNodes>
            0 -1 64 -8705 -537207489 -4239937 -541254337 1531993580
            -4956764 -269291571 -12884219</internalNodes>
          <leafValues>
            -3.9605358242988586e-01 5.0030308961868286e-01</leafValues></_>
        <_>
          <internalNodes>
            0 -1 59 -1073495033 -76581641 -171966465 -8396801 -117455345
            -67108865 -1062207745 -803473873</internalNodes>
          <leafValues>
            -3.6505150794982910e-01 4.9429062008857727e-01</leafValues></_>
        <_>
          <internalNodes>
            0 -1 73 -514 1071182842 -269553700 196673532 -539004706
            942702557 2138922334 2147483647</internalNodes>
          <leafValues>
            -5.8632147312164307e-01 2.8380626440048218e-01</leafValues></_>
        <_>
          <internalNodes>
            0 -1 42 -168165409 956350580 1433794553 335084340
            -1997487890 134781876 -841695318 226286586</internalNodes>
          <leafValues>
            -5.1184880733489990e-01 3.7335854768753052e-01</leafValues></_>
        <_>
          <internalNodes>
            0 -1 36 -8417330 -201338881 -1615940728 254748635 -54790209
            348076479 638561215 2013248319</internalNodes>
          <leafValues>
            -5.6350380182266235e-01 2.8398692607879639e-01</leafValues></_>
        <_>
          <internalNodes>
            0 -1 81 -587260784 -576749575 -1669606123 453170521
            -83953252 -623125537 -90477824 -1706049971</internalNodes>
          <leafValues>
            -4.9625855684280396e-01 3.4869700670242310e-01</leafValues></_>
        <_>
          <internalNodes>
            0 -1 84 -9938 696398318 1070208736 967486022 670776829
            434662137 872353116 1811674871</internalNodes>
          <leafValues>
            -5.8320373296737671e-01 2.6583945751190186e-01</leafValues></_>
        <_>
          <internalNodes>
            0 -1 5 -363141622 -239875254 -1432323398 464676619
            -656156600 -655048034 -391188993 -84412465</internalNodes>
          <leafValues>
            -5.2150756120681763e-01 3.4631469845771790e-01</leafValues></_></weakClassifiers></_>
    <!-- stage 10 -->
    <_>
      <maxWeakCount>10</maxWeakCount>
      <stageThreshold>-1.2043844461441040e+00</stageThreshold>
      <weakClassifiers>
        <_>
          <internalNodes>
            0 -1 43 -571488022 -570436133 -281030916 -583199483
            -641536514 -1615143425 -116326401 -550844145</internalNodes>
          <leafValues>
            -6.6361653804779053e-01 1.9604672491550446e-01</leafValues></_>
        <_>
          <internalNodes>
            0 -1 12 -262145 -705568772 -175415297 -178392083 -1437799681
            -1258629332 1000844015 21979147</internalNodes>
          <leafValues>
            -5.6519657373428345e-01 3.0456781387329102e-01</leafValues></_>
        <_>
          <internalNodes>
            0 -1 51 -1342172400 -191617 -643 -36603918 -91291650
            -17053217 -1577783044 -1260963209</internalNodes>
          <leafValues>
            -5.8604788780212402e-01 2.9618346691131592e-01</leafValues></_>
        <_>
          <internalNodes>
            0 -1 54 -806359297 -4121 -1513370873 736620259 196577104
            -405277098 -34120841 -1048973</internalNodes>
          <leafValues>
            -3.6587005853652954e-01 4.7734427452087402e-01</leafValues></_>
        <_>
          <internalNodes>
            0 -1 63 1967936212 -71692 -14222346 -1345844538 -11780
            -1077960993 -1615157796 791500233</internalNodes>
          <leafValues>
            -6.5954190492630005e-01 2.5595691800117493e-01</leafValues></_>
        <_>
          <internalNodes>
            0 -1 68 -531634558 865068942 -214445902 2138308467 81786719
            -5247442 -1057227777 1080554471</internalNodes>
          <leafValues>
            -5.7511496543884277e-01 2.8192704916000366e-01</leafValues></_>
        <_>
          <internalNodes>
            0 -1 4 -1042088222 -285753242 2012049383 -245161914
            -314395669 -213939586 621805471 1114071675</internalNodes>
          <leafValues>
            -6.1220860481262207e-01 2.3731665313243866e-01</leafValues></_>
        <_>
          <internalNodes>
            0 -1 56 -1443145485 1988102498 534740469 1327645410
            -342172998 -1145315953 2064154367 -232077321</internalNodes>
          <leafValues>
            -3.7831282615661621e-01 4.3669494986534119e-01</leafValues></_>
        <_>
          <internalNodes>
            0 -1 32 -10553354 1878801516 166209754 799550440 1033640828
            757621993 206579948 1610612567</internalNodes>
          <leafValues>
            -5.7260602712631226e-01 2.6549491286277771e-01</leafValues></_>
        <_>
          <internalNodes>
            0 -1 2 -335546834 -552104052 -158802433 1929566028 180870239
            1601293336 -366221073 -2892043</internalNodes>
          <leafValues>
            -4.6849688887596130e-01 3.5707718133926392e-01</leafValues></_></weakClassifiers></_>
    <!-- stage 11 -->
    <_>
      <maxWeakCount>10</maxWeakCount>
      <stageThreshold>-1.7368365526199341e+00</stageThreshold>
      <weakClassifiers>
        <_>
          <internalNodes>
            0 -1 72 -113 -817 -140552306 -3145873 1732237303 1981281703
            -134750257 -134217729</internalNodes>
          <leafValues>
            -5.4474252462387085e-01 3.1632161140441895e-01</leafValues></_>
        <_>
          <internalNodes>
            0 -1 39 -72655696 2013224444 -1111523331 1606092792
            -341115654 2146036667 -1129779250 -4456739</internalNodes>
          <leafValues>
            -5.3460186719894409e-01 3.2928371429443359e-01</leafValues></_>
        <_>
          <internalNodes>
            0 -1 0 -2097169 -825229530 -269562298 -831523257 -301990081
            1082130175 1937224823 -134219785</internalNodes>
          <leafValues>
            -4.0298810601234436e-01 4.2096018791198730e-01</leafValues></_>
        <_>
          <internalNodes>
            0 -1 77 -30158608 -571467276 -1168352803 429370257
            -631056196 -16855555 719990476 -1968224636</internalNodes>
          <leafValues>
            -4.8689436912536621e-01 3.4727278351783752e-01</leafValues></_>
        <_>
          <internalNodes>
            0 -1 33 1433925623 354472528 1433785845 87126399 -570561537
            186816912 1572383037 229432799</internalNodes>
          <leafValues>
            -5.1943379640579224e-01 3.3485844731330872e-01</leafValues></_>
        <_>
          <internalNodes>
            0 -1 27 -1112651588 -1109424130 1597931517 825755554 -90440
            -7087629 -553719032 -659554565</internalNodes>
          <leafValues>
            -5.0690883398056030e-01 3.0206778645515442e-01</leafValues></_>
        <_>
          <internalNodes>
            0 -1 45 -537308019 401852740 2137390506 1474785670
            1724184559 1733253107 -119477265 1942486011</internalNodes>
          <leafValues>
            -4.7200435400009155e-01 3.4845206141471863e-01</leafValues></_>
        <_>
          <internalNodes>
            0 -1 15 -827403230 1380898820 -1171928688 1594721160
            1794931804 142497885 -626327570 -88430851</internalNodes>
          <leafValues>
            -6.2450623512268066e-01 2.4470937252044678e-01</leafValues></_>
        <_>
          <internalNodes>
            0 -1 37 1998842498 -639640488 1392994901 1600123220
            -771092838 -51660481 176868063 -636760815</internalNodes>
          <leafValues>
            -4.9276769161224365e-01 3.0157554149627686e-01</leafValues></_>
        <_>
          <internalNodes>
            0 -1 79 -1060970492 -201327841 -1883509605 -2049 -941883442
            -90457258 1188654255 1096937603</internalNodes>
          <leafValues>
            -6.1707288026809692e-01 2.6061785221099854e-01</leafValues></_></weakClassifiers></_></stages>
  <features>
    <_>
      <rect>
        0 2 1 1</rect></_>
    <_>
      <rect>
        0 2 1 3</rect></_>
    <_>
      <rect>
        0 3 14 1</rect></_>
    <_>
      <rect>
        0 5 2 3</rect></_>
    <_>
      <rect>
        1 0 2 2</rect></_>
    <_>
      <rect>
        1 8 12 1</rect></_>
    <_>
      <rect>
        2 0 2 3</rect></_>
    <_>
      <rect>
        2 0 9 1</rect></_>
    <_>
      <rect>
        2 7 14 2</rect></_>
    <_>
      <rect>
        3 0 3 1</rect></_>
    <_>
      <rect>
        3 0 5 1</rect></_>
    <_>
      <rect>
        3 0 9 1</rect></_>
    <_>
      <rect>
        3 1 5 2</rect></_>
    <_>
      <rect>
        3 1 9 1</rect></_>
    <_>
      <rect>
        3 1 9 2</rect></_>
    <_>
      <rect>
        3 4 11 1</rect></_>
    <_>
      <rect>
        4 0 5 1</rect></_>
    <_>
      <rect>
        4 3 13 1</rect></_>
    <_>
      <rect>
        4 6 2 2</rect></_>
    <_>
      <rect>
        4 13 7 1</rect></_>
    <_>
      <rect>
        5 1 11 1</rect></_>
    <_>
      <rect>
        6 0 1 3</rect></_>
    <_>
      <rect>
        6 0 3 3</rect></_>
    <_>
      <rect>
        6 6 1 3</rect></_>
    <_>
      <rect>
        6 13 10 1</rect></_>
    <_>
      <rect>
        7 1 3 5</rect></_>
    <_>
      <rect>
        7 3 1 4</rect></_>
    <_>
      <rect>
        8 1 6 1</rect></_>
    <_>
      <rect>
        8 2 1 3</rect></_>
    <_>
      <rect>
        8 7 1 3</rect></_>
    <_>
      <rect>
        9 0 6 1</rect></_>
    <_>
      <rect>
        9 2 11 4</rect></_>
    <_>
      <rect>
        9 7 1 3</rect></_>
    <_>
      <rect>
        9 10 5 2</rect></_>
    <_>
      <rect>
        10 0 8 1</rect></_>
    <_>
      <rect>
        11 0 1 2</rect></_>
    <_>
      <rect>
        11 2 3 4</rect></_>
    <_>
      <rect>
        11 12 10 1</rect></_>
    <_>
      <rect>
        11 13 5 1</rect></_>
    <_>
      <rect>
        12 0 7 1</rect></_>
    <_>
      <rect>
        12 1 7 1</rect></_>
    <_>
      <rect>
        12 4 2 4</rect></_>
    <_>
      <rect>
        12 10 4 2</rect></_>
    <_>
      <rect>
        12 12 7 1</rect></_>
    <_>
      <rect>
        12 13 8 1</rect></_>
    <_>
      <rect>
        13 2 6 1</rect></_>
    <_>
      <rect>
        13 3 3 4</rect></_>
    <_>
      <rect>
        13 4 6 3</rect></_>
    <_>
      <rect>
        13 6 6 3</rect></_>
    <_>
      <rect>
        13 13 8 1</rect></_>
    <_>
      <rect>
        13 13 9 1</rect></_>
    <_>
      <rect>
        14 0 2 1</rect></_>
    <_>
      <rect>
        14 13 8 1</rect></_>
    <_>
      <rect>
        15 0 2 3</rect></_>
    <_>
      <rect>
        15 3 4 3</rect></_>
    <_>
      <rect>
        16 0 4 2</rect></_>
    <_>
      <rect>
        16 0 8 1</rect></_>
    <_>
      <rect>
        17 7 3 3</rect></_>
    <_>
      <rect>
        17 13 6 1</rect></_>
    <_>
      <rect>
        18 0 1 2</rect></_>
    <_>
      <rect>
        18 0 2 3</rect></_>
    <_>
      <rect>
        18 1 3 4</rect></_>
    <_>
      <rect>
        19 0 1 2</rect></_>
    <_>
      <rect>
        20 1 1 5</rect></_>
    <_>
      <rect>
        20 13 4 1</rect></_>
    <_>
      <rect>
        21 0 3 1</rect></_>
    <_>
      <rect>
        21 3 3 3</rect></_>
    <_>
      <rect>
        21 4 3 3</rect></_>
    <_>
      <rect>
        23 0 2 3</rect></_>
    <_>
      <rect>
        23 0 4 3</rect></_>
    <_>
      <rect>
        23 10 2 2</rect></_>
    <_>
      <rect>
        24 4 2 4</rect></_>
    <_>
      <rect>
        24 6 3 2</rect></_>
    <_>
      <rect>
        24 7 2 3</rect></_>
    <_>
      <rect>
        24 10 2 2</rect></_>
    <_>
      <rect>
        25 0 2 3</rect></_>
    <_>
      <rect>
        26 7 2 3</rect></_>
    <_>
      <rect>
        26 13 5 1</rect></_>
    <_>
      <rect>
        26 13 6 1</rect></_>
    <_>
      <rect>
        27 0 2 3</rect></_>
    <_>
      <rect>
        27 10 2 2</rect></_>
    <_>
      <rect>
        29 13 5 1</rect></_>
    <_>
      <rect>
        30 5 1 2</rect></_>
    <_>
      <rect>
        30 7 1 3</rect></_>
    <_>
      <rect>
        34 7 1 3</rect></_>
    <_>
      <rect>
        35 7 1 3</rect></_></features></cascade>
</opencv_storage>
