<?xml version="1.0"?>
<opencv_storage>
<cascade>
  <stageType>BOOST</stageType>
  <featureType>LBP</featureType>
  <height>14</height>
  <width>42</width>
  <stageParams>
    <boostType>GAB</boostType>
    <minHitRate>9.9500000476837158e-001</minHitRate>
    <maxFalseAlarm>4.4999998807907104e-001</maxFalseAlarm>
    <weightTrimRate>9.4999999999999996e-001</weightTrimRate>
    <maxDepth>1</maxDepth>
    <maxWeakCount>100</maxWeakCount></stageParams>
  <featureParams>
    <maxCatCount>256</maxCatCount>
    <featSize>1</featSize></featureParams>
  <stageNum>12</stageNum>
  <stages>
    <!-- stage 0 -->
    <_>
      <maxWeakCount>3</maxWeakCount>
      <stageThreshold>-8.2853245735168457e-001</stageThreshold>
      <weakClassifiers>
        <_>
          <internalNodes>
            0 -1 37 285216984 -583724588 1359073759 -585301731
            -1207919366 -4685672 -1744271105 -1693972344</internalNodes>
          <leafValues>
            -8.2473558187484741e-001 7.9090112447738647e-001</leafValues></_>
        <_>
          <internalNodes>
            0 -1 23 269504592 -707788396 419500415 2132086785
            -2138529618 -1164967776 402655407 -1960181752</internalNodes>
          <leafValues>
            -7.4675083160400391e-001 7.1070402860641479e-001</leafValues></_>
        <_>
          <internalNodes>
            0 -1 39 -202378098 -251670049 -1903268086 -537928017
            -1263013447 -252423748 -272171121 -572523877</internalNodes>
          <leafValues>
            -6.7105877399444580e-001 7.4295401573181152e-001</leafValues></_></weakClassifiers></_>
    <!-- stage 1 -->
    <_>
      <maxWeakCount>3</maxWeakCount>
      <stageThreshold>-8.1748569011688232e-001</stageThreshold>
      <weakClassifiers>
        <_>
          <internalNodes>
            0 -1 17 287364601 -584025864 -720897 -537571911 -1117732865
            -1073948680 1069072383 -1081602328</internalNodes>
          <leafValues>
            -7.6333057880401611e-001 8.1242781877517700e-001</leafValues></_>
        <_>
          <internalNodes>
            0 -1 31 -203434240 -2121399 352571791 -134749749 -3556389
            -360480633 -1198814209 13625999</internalNodes>
          <leafValues>
            -7.8441995382308960e-001 6.5391725301742554e-001</leafValues></_>
        <_>
          <internalNodes>
            0 -1 15 285250768 -1657798636 152180093 420675585
            -1207926532 -8257400 419960987 -1148256087</internalNodes>
          <leafValues>
            -6.5546298027038574e-001 7.3026490211486816e-001</leafValues></_></weakClassifiers></_>
    <!-- stage 2 -->
    <_>
      <maxWeakCount>6</maxWeakCount>
      <stageThreshold>-1.3338762521743774e+000</stageThreshold>
      <weakClassifiers>
        <_>
          <internalNodes>
            0 -1 16 -581922373 -572703591 1025064957 -42623043
            -587923713 -204836 -1646481409 -1651654770</internalNodes>
          <leafValues>
            -6.9488149881362915e-001 7.8489482402801514e-001</leafValues></_>
        <_>
          <internalNodes>
            0 -1 39 -100663297 -201985617 -7361009 -67108881 -138543185
            1106571701 -11538609 -134221109</internalNodes>
          <leafValues>
            -5.4936617612838745e-001 8.1860017776489258e-001</leafValues></_>
        <_>
          <internalNodes>
            0 -1 54 356516348 1431327064 337204735 2138898649
            -2004301634 -1081597799 218630399 -1196418592</internalNodes>
          <leafValues>
            -7.7375411987304688e-001 5.7966601848602295e-001</leafValues></_>
        <_>
          <internalNodes>
            0 -1 55 -200875316 -209338238 139778 -249847670 -1269438517
            8659008 -1572371798 -213966709</internalNodes>
          <leafValues>
            -6.1659812927246094e-001 6.5415656566619873e-001</leafValues></_>
        <_>
          <internalNodes>
            0 -1 10 -6450 -122097666 -553865708 951648254 1878088704
            1291608053 2147118876 -1</internalNodes>
          <leafValues>
            -5.5839419364929199e-001 6.7460024356842041e-001</leafValues></_>
        <_>
          <internalNodes>
            0 -1 59 -229644094 -740913019 402653736 1595499402
            1629027160 537135104 -339090710 1376477103</internalNodes>
          <leafValues>
            -6.9653308391571045e-001 5.0569772720336914e-001</leafValues></_></weakClassifiers></_>
    <!-- stage 3 -->
    <_>
      <maxWeakCount>6</maxWeakCount>
      <stageThreshold>-1.3329070806503296e+000</stageThreshold>
      <weakClassifiers>
        <_>
          <internalNodes>
            0 -1 38 -17 -235014145 -273698930 -1 -655361 -252578305
            -1048689 -1</internalNodes>
          <leafValues>
            -6.2613362073898315e-001 8.3587586879730225e-001</leafValues></_>
        <_>
          <internalNodes>
            0 -1 1 -822088017 -1494220817 -286627166 -521146870
            -438311098 1148141431 2004874787 -452986937</internalNodes>
          <leafValues>
            -6.2483572959899902e-001 7.0758932828903198e-001</leafValues></_>
        <_>
          <internalNodes>
            0 -1 19 1433731065 1567710713 -33685505 -4358209 -1073954819
            -745475 -409601 -1080029252</internalNodes>
          <leafValues>
            -5.6460815668106079e-001 6.4405161142349243e-001</leafValues></_>
        <_>
          <internalNodes>
            0 -1 72 -289409534 572709774 -2136751520 -1605438470
            1541534464 538170499 1653335808 -521666585</internalNodes>
          <leafValues>
            -5.9405732154846191e-001 5.3030282258987427e-001</leafValues></_>
        <_>
          <internalNodes>
            0 -1 47 284718389 1442395637 -1181229569 -4235459
            -1466270465 -4196097 -71385857 -1733811012</internalNodes>
          <leafValues>
            -5.5647981166839600e-001 5.8203917741775513e-001</leafValues></_>
        <_>
          <internalNodes>
            0 -1 30 1081598594 1419768706 -1017120245 -83364286
            -389044566 -467664864 -1068501878 -800590846</internalNodes>
          <leafValues>
            -5.8518677949905396e-001 4.9468857049942017e-001</leafValues></_></weakClassifiers></_>
    <!-- stage 4 -->
    <_>
      <maxWeakCount>6</maxWeakCount>
      <stageThreshold>-1.2980090379714966e+000</stageThreshold>
      <weakClassifiers>
        <_>
          <internalNodes>
            0 -1 69 -184550649 -8913025 -50331649 -201326593 -18874625
            -32897 -218103829 -520093713</internalNodes>
          <leafValues>
            -5.9198069572448730e-001 7.8156101703643799e-001</leafValues></_>
        <_>
          <internalNodes>
            0 -1 46 -2097153 -788860673 1309495053 -974139641 -252709717
            -789389193 1996738051 -33</internalNodes>
          <leafValues>
            -5.4641300439834595e-001 6.8572372198104858e-001</leafValues></_>
        <_>
          <internalNodes>
            0 -1 14 21242301 -539159755 -1122222113 -2280651 -36897815
            -73606052 -79118609 -3630132</internalNodes>
          <leafValues>
            -6.3102430105209351e-001 5.3388547897338867e-001</leafValues></_>
        <_>
          <internalNodes>
            0 -1 74 -339745273 1137177294 -532159998 -2139162777
            -149423358 -449095354 -272110076 -218628233</internalNodes>
          <leafValues>
            -5.4400163888931274e-001 5.3200685977935791e-001</leafValues></_>
        <_>
          <internalNodes>
            0 -1 42 1030755448 -1073872995 -69569291 -4501512 968236024
            -16486 -541393926 -1145553976</internalNodes>
          <leafValues>
            -7.3628991842269897e-001 4.0775153040885925e-001</leafValues></_>
        <_>
          <internalNodes>
            0 -1 53 -521673725 -9447329 2147450855 -134217929 -457195601
            -671622077 -872415777 -1073233405</internalNodes>
          <leafValues>
            -4.6834933757781982e-001 6.1143130064010620e-001</leafValues></_></weakClassifiers></_>
    <!-- stage 5 -->
    <_>
      <maxWeakCount>6</maxWeakCount>
      <stageThreshold>-1.4600841999053955e+000</stageThreshold>
      <weakClassifiers>
        <_>
          <internalNodes>
            0 -1 40 -2 -71436289 -1081374964 -17409 -132129 -252646597
            -9249 -131073</internalNodes>
          <leafValues>
            -7.0482200384140015e-001 6.1317390203475952e-001</leafValues></_>
        <_>
          <internalNodes>
            0 -1 27 1431568351 1977614335 2144862207 2013231039
            -419434578 -4370 -16848146 -67114870</internalNodes>
          <leafValues>
            -5.3594231605529785e-001 6.7189788818359375e-001</leafValues></_>
        <_>
          <internalNodes>
            0 -1 3 -286265553 -288883729 -274870686 -353375034
            2045506919 1690041199 2147481445 -1048761</internalNodes>
          <leafValues>
            -5.9768378734588623e-001 5.4696100950241089e-001</leafValues></_>
        <_>
          <internalNodes>
            0 -1 4 -134545410 -5703686 -71540238 -1349334278 1580745724
            1308117213 1202520827 1308512223</internalNodes>
          <leafValues>
            -7.4109089374542236e-001 3.6831066012382507e-001</leafValues></_>
        <_>
          <internalNodes>
            0 -1 44 425729245 -8972291 -38019073 -164417 -1079459842
            -67200001 -1143324737 -1092082948</internalNodes>
          <leafValues>
            -5.6800931692123413e-001 5.0094425678253174e-001</leafValues></_>
        <_>
          <internalNodes>
            0 -1 71 -66 990687228 -67125972 1069285308 -50332163
            1044315645 -2571 -41943041</internalNodes>
          <leafValues>
            -4.9089109897613525e-001 5.5790531635284424e-001</leafValues></_></weakClassifiers></_>
    <!-- stage 6 -->
    <_>
      <maxWeakCount>8</maxWeakCount>
      <stageThreshold>-1.3831173181533813e+000</stageThreshold>
      <weakClassifiers>
        <_>
          <internalNodes>
            0 -1 11 -681731073 -2246209 -1208139777 -2752580 -37879809
            -196643 -572661761 -1075970081</internalNodes>
          <leafValues>
            -5.6764817237854004e-001 7.4003648757934570e-001</leafValues></_>
        <_>
          <internalNodes>
            0 -1 43 -1057 -754982214 168807941 -1919979961 -253496143
            -252514096 -553126561 -68157441</internalNodes>
          <leafValues>
            -5.1411336660385132e-001 6.2704712152481079e-001</leafValues></_>
        <_>
          <internalNodes>
            0 -1 29 -1349907204 -4903014 -1075574785 -5235820 -105006081
            -33809443 -475201 -22496840</internalNodes>
          <leafValues>
            -6.5674120187759399e-001 4.4796296954154968e-001</leafValues></_>
        <_>
          <internalNodes>
            0 -1 49 -1065900489 -1052761 -268435457 -1 -10273 -2177
            -524289 -9181689</internalNodes>
          <leafValues>
            -4.3221050500869751e-001 6.1747372150421143e-001</leafValues></_>
        <_>
          <internalNodes>
            0 -1 75 -217 -1347420177 -608282330 -487605129 1910499078
            1131571950 -3179776 -523763714</internalNodes>
          <leafValues>
            -5.8398228883743286e-001 4.1473022103309631e-001</leafValues></_>
        <_>
          <internalNodes>
            0 -1 51 259264536 -1149902853 -753876995 2143254457
            -645378568 -5314406 -1080132867 -1078428268</internalNodes>
          <leafValues>
            -7.3157382011413574e-001 3.2581529021263123e-001</leafValues></_>
        <_>
          <internalNodes>
            0 -1 33 -1069030909 -905977946 -8913185 -1710847 -805331457
            -327790 -473968641 -1067981309</internalNodes>
          <leafValues>
            -4.4401237368583679e-001 5.3910166025161743e-001</leafValues></_>
        <_>
          <internalNodes>
            0 -1 8 -421008670 -279056550 -464391041 -539758432
            1303335486 -353672409 1890057173 -195561501</internalNodes>
          <leafValues>
            -4.8434647917747498e-001 4.7722080349922180e-001</leafValues></_></weakClassifiers></_>
    <!-- stage 7 -->
    <_>
      <maxWeakCount>7</maxWeakCount>
      <stageThreshold>-1.0721565485000610e+000</stageThreshold>
      <weakClassifiers>
        <_>
          <internalNodes>
            0 -1 15 -13041667 -294913 1060863999 1067139069 -15409924
            -8707 -546505217 -9761</internalNodes>
          <leafValues>
            -5.3846156597137451e-001 7.8067737817764282e-001</leafValues></_>
        <_>
          <internalNodes>
            0 -1 67 -4 1058889181 -1109576068 1061024607 -630597636
            990968873 -338232644 2139094975</internalNodes>
          <leafValues>
            -6.1439883708953857e-001 5.0837707519531250e-001</leafValues></_>
        <_>
          <internalNodes>
            0 -1 21 1556954559 -44715049 1066999807 -34212897 -60490753
            -121838855 -590770181 1561712573</internalNodes>
          <leafValues>
            -5.5671542882919312e-001 4.9533960223197937e-001</leafValues></_>
        <_>
          <internalNodes>
            0 -1 2 -421007634 -415770121 -15217666 -18423610 -739772201
            -1757702077 -138678277 2004318023</internalNodes>
          <leafValues>
            -6.7898088693618774e-001 3.6057698726654053e-001</leafValues></_>
        <_>
          <internalNodes>
            0 -1 56 1084745218 -134237397 1132975563 -3672349 -133303569
            -84217206 -353381665 -1064833534</internalNodes>
          <leafValues>
            -5.1906722784042358e-001 4.4790410995483398e-001</leafValues></_>
        <_>
          <internalNodes>
            0 -1 6 -12594 1985637327 -157620114 -386470066 -606119323
            2111261223 -439408252 -168362257</internalNodes>
          <leafValues>
            -5.6427675485610962e-001 4.1696536540985107e-001</leafValues></_>
        <_>
          <internalNodes>
            0 -1 18 287069429 1540717769 1504826367 -1082829027
            -56821761 -606297447 1049934591 -1620034247</internalNodes>
          <leafValues>
            -5.8802723884582520e-001 3.9574873447418213e-001</leafValues></_></weakClassifiers></_>
    <!-- stage 8 -->
    <_>
      <maxWeakCount>8</maxWeakCount>
      <stageThreshold>-1.2750341892242432e+000</stageThreshold>
      <weakClassifiers>
        <_>
          <internalNodes>
            0 -1 13 -8913413 -7012417 1060835131 2147041247 -589500419
            -587924228 -572588033 -536871425</internalNodes>
          <leafValues>
            -5.0236552953720093e-001 7.6100629568099976e-001</leafValues></_>
        <_>
          <internalNodes>
            0 -1 41 -202381393 -242227537 -542398705 -173409041
            -771758709 -253364561 -80740469 -168428577</internalNodes>
          <leafValues>
            -5.4317152500152588e-001 5.6954395771026611e-001</leafValues></_>
        <_>
          <internalNodes>
            0 -1 24 1087881455 2113665003 -210894853 2146828223
            -1140851282 -18 -890437942 -4461558</internalNodes>
          <leafValues>
            -4.7311496734619141e-001 5.2226537466049194e-001</leafValues></_>
        <_>
          <internalNodes>
            0 -1 61 -16387 939276280 -1283703044 2143205076 -280183363
            1034435276 1050948600 -35</internalNodes>
          <leafValues>
            -4.6256715059280396e-001 4.9628910422325134e-001</leafValues></_>
        <_>
          <internalNodes>
            0 -1 26 171050035 -1221456399 -539869197 -1087169504
            -1922552099 -1361411 -281382437 -1410185933</internalNodes>
          <leafValues>
            -5.3890913724899292e-001 3.8419398665428162e-001</leafValues></_>
        <_>
          <internalNodes>
            0 -1 73 -6137 1120918271 -1368794106 -2144358409 -83927551
            1401633275 -775965916 -788529194</internalNodes>
          <leafValues>
            -5.3902828693389893e-001 4.4206458330154419e-001</leafValues></_>
        <_>
          <internalNodes>
            0 -1 63 -1951234380 -1614915876 1698200827 2145161916
            -1355301121 -1141135941 -1145373697 -1074133536</internalNodes>
          <leafValues>
            -5.5798375606536865e-001 3.4880429506301880e-001</leafValues></_>
        <_>
          <internalNodes>
            0 -1 70 -520096505 1984419111 -460858761 -1832389703
            -234095242 -1409595137 -366286102 -2131758089</internalNodes>
          <leafValues>
            -4.5353689789772034e-001 4.7646188735961914e-001</leafValues></_></weakClassifiers></_>
    <!-- stage 9 -->
    <_>
      <maxWeakCount>8</maxWeakCount>
      <stageThreshold>-1.1843473911285400e+000</stageThreshold>
      <weakClassifiers>
        <_>
          <internalNodes>
            0 -1 22 -88539393 -2622473 -67436545 -1078223497 -8694275
            -388 -276869121 -172161</internalNodes>
          <leafValues>
            -5.0693207979202271e-001 7.3959207534790039e-001</leafValues></_>
        <_>
          <internalNodes>
            0 -1 62 1382277871 -134223894 -1093669 -789270 2012932831
            -10771222 -878706965 -3153270</internalNodes>
          <leafValues>
            -4.2572146654129028e-001 6.5866845846176147e-001</leafValues></_>
        <_>
          <internalNodes>
            0 -1 46 -84936133 -799817490 201575681 -934553081 -730335557
            -1070448605 1359418891 -537919653</internalNodes>
          <leafValues>
            -5.4319930076599121e-001 4.7171792387962341e-001</leafValues></_>
        <_>
          <internalNodes>
            0 -1 25 1585000699 -111330383 303305717 2078094325
            -1344488514 -1086581044 847298555 -215041</internalNodes>
          <leafValues>
            -4.5561578869819641e-001 4.9395501613616943e-001</leafValues></_>
        <_>
          <internalNodes>
            0 -1 36 -735850437 -5548997 -170426689 -41427919 -722534981
            -56665225 -794167809 -637809441</internalNodes>
          <leafValues>
            -3.9095941185951233e-001 6.1021536588668823e-001</leafValues></_>
        <_>
          <internalNodes>
            0 -1 65 201339189 -109363211 -131585 1601142655 -536940609
            -8880131 -1428402450 -1165357912</internalNodes>
          <leafValues>
            -4.4847896695137024e-001 4.8076605796813965e-001</leafValues></_>
        <_>
          <internalNodes>
            0 -1 34 -1024463798 -67440058 1412853760 -1292148966
            -357569761 1109114946 -235150709 1395639042</internalNodes>
          <leafValues>
            -5.9451353549957275e-001 3.2721316814422607e-001</leafValues></_>
        <_>
          <internalNodes>
            0 -1 66 -252447488 -686295729 -774513665 -2108929 -876294680
            -1888788333 -2067312392 1355546591</internalNodes>
          <leafValues>
            -5.9371763467788696e-001 3.0977559089660645e-001</leafValues></_></weakClassifiers></_>
    <!-- stage 10 -->
    <_>
      <maxWeakCount>9</maxWeakCount>
      <stageThreshold>-1.7721819877624512e+000</stageThreshold>
      <weakClassifiers>
        <_>
          <internalNodes>
            0 -1 52 1364590559 -6488196 2071953407 -304133 -4210689
            -16973858 -69222721 -318838</internalNodes>
          <leafValues>
            -5.0053322315216064e-001 7.2953337430953979e-001</leafValues></_>
        <_>
          <internalNodes>
            0 -1 9 -1346390051 -1153975463 -168044545 -1073760400
            -603979812 -71570664 -78774824 -3146535</internalNodes>
          <leafValues>
            -4.7651672363281250e-001 5.5323666334152222e-001</leafValues></_>
        <_>
          <internalNodes>
            0 -1 48 -1073492989 -624955969 -629407821 -277350569
            -367002093 -1881174853 -370159189 1526981123</internalNodes>
          <leafValues>
            -5.3586703538894653e-001 4.3482360243797302e-001</leafValues></_>
        <_>
          <internalNodes>
            0 -1 7 -268514049 -2182498 -557921026 -1143833520 1337869053
            1595298893 -6356993 -1409037</internalNodes>
          <leafValues>
            -4.6753937005996704e-001 4.7871547937393188e-001</leafValues></_>
        <_>
          <internalNodes>
            0 -1 28 -4224337 -3210241 -1491399617 -177201 -1666217729
            -188466456 -37118977 -570621953</internalNodes>
          <leafValues>
            -4.5714759826660156e-001 4.2808809876441956e-001</leafValues></_>
        <_>
          <internalNodes>
            0 -1 68 937426204 1025373468 -1189126255 2138821591
            -1700284228 -1216642872 -1158053604 805297404</internalNodes>
          <leafValues>
            -5.4907804727554321e-001 3.8489469885826111e-001</leafValues></_>
        <_>
          <internalNodes>
            0 -1 0 -288366334 -825757274 -460792322 -291581722
            1170695122 -884364 -415762442 -227019529</internalNodes>
          <leafValues>
            -6.1079239845275879e-001 2.9559111595153809e-001</leafValues></_>
        <_>
          <internalNodes>
            0 -1 58 -540048250 322173639 -634957345 -679614881 -82855217
            -664080198 -945776257 1431534827</internalNodes>
          <leafValues>
            -4.9022802710533142e-001 4.0082153677940369e-001</leafValues></_>
        <_>
          <internalNodes>
            0 -1 35 78730549 488199256 1405345655 1971282205 -1734690372
            -1398044024 700103675 -1735738837</internalNodes>
          <leafValues>
            -4.9552637338638306e-001 3.6625802516937256e-001</leafValues></_></weakClassifiers></_>
    <!-- stage 11 -->
    <_>
      <maxWeakCount>9</maxWeakCount>
      <stageThreshold>-1.6782010793685913e+000</stageThreshold>
      <weakClassifiers>
        <_>
          <internalNodes>
            0 -1 45 -218370049 -31505 -8193 -1110514 -797769730 -2049
            -11010053 -8433</internalNodes>
          <leafValues>
            -4.4659072160720825e-001 7.9415500164031982e-001</leafValues></_>
        <_>
          <internalNodes>
            0 -1 12 -203689238 -11411516 395785395 905899519 -946933521
            1479650435 1101129199 1468004095</internalNodes>
          <leafValues>
            -5.4474192857742310e-001 4.7251713275909424e-001</leafValues></_>
        <_>
          <internalNodes>
            0 -1 20 -496508273 -1048657 -4097 2146957074 -553652225
            -65713 -17 -179837374</internalNodes>
          <leafValues>
            -3.9359572529792786e-001 5.4971671104431152e-001</leafValues></_>
        <_>
          <internalNodes>
            0 -1 60 1358984660 -1210300454 404051839 -545474884
            567032571 -1093952574 781125119 -5567960</internalNodes>
          <leafValues>
            -4.8279407620429993e-001 4.3091443181037903e-001</leafValues></_>
        <_>
          <internalNodes>
            0 -1 57 1426068991 1601467897 992870367 2145386399
            2038484222 -71778387 -341114881 -585061027</internalNodes>
          <leafValues>
            -5.4100221395492554e-001 3.2671278715133667e-001</leafValues></_>
        <_>
          <internalNodes>
            0 -1 5 -35655857 1692374991 -453645532 -867243825 2042613767
            -467932117 -1149248511 -184552449</internalNodes>
          <leafValues>
            -5.2549248933792114e-001 4.0258836746215820e-001</leafValues></_>
        <_>
          <internalNodes>
            0 -1 32 1342691326 1475291005 -1055105 1073430447 -538386740
            -1048577 -270038549 -68424022</internalNodes>
          <leafValues>
            -3.8929802179336548e-001 4.6440866589546204e-001</leafValues></_>
        <_>
          <internalNodes>
            0 -1 50 2071425138 166474750 2007511288 1015435772
            -743868420 449328296 323123188 1875607550</internalNodes>
          <leafValues>
            -6.6830915212631226e-001 2.5718382000923157e-001</leafValues></_>
        <_>
          <internalNodes>
            0 -1 64 -198224875 2014237438 1368741745 823456091 -9455171
            -268766785 -760679910 -1970341089</internalNodes>
          <leafValues>
            -4.3688443303108215e-001 3.7087124586105347e-001</leafValues></_></weakClassifiers></_></stages>
  <features>
    <_>
      <rect>
        0 2 2 2</rect></_>
    <_>
      <rect>
        0 3 1 2</rect></_>
    <_>
      <rect>
        0 3 3 2</rect></_>
    <_>
      <rect>
        0 4 1 1</rect></_>
    <_>
      <rect>
        0 5 3 3</rect></_>
    <_>
      <rect>
        0 7 1 1</rect></_>
    <_>
      <rect>
        0 7 1 2</rect></_>
    <_>
      <rect>
        0 10 2 1</rect></_>
    <_>
      <rect>
        1 1 2 3</rect></_>
    <_>
      <rect>
        1 1 9 2</rect></_>
    <_>
      <rect>
        1 5 1 3</rect></_>
    <_>
      <rect>
        2 1 12 2</rect></_>
    <_>
      <rect>
        2 2 13 1</rect></_>
    <_>
      <rect>
        2 3 12 1</rect></_>
    <_>
      <rect>
        3 0 12 3</rect></_>
    <_>
      <rect>
        3 3 9 1</rect></_>
    <_>
      <rect>
        4 1 12 2</rect></_>
    <_>
      <rect>
        4 11 7 1</rect></_>
    <_>
      <rect>
        6 11 4 1</rect></_>
    <_>
      <rect>
        6 11 5 1</rect></_>
    <_>
      <rect>
        7 1 1 3</rect></_>
    <_>
      <rect>
        7 1 11 2</rect></_>
    <_>
      <rect>
        7 2 6 1</rect></_>
    <_>
      <rect>
        7 4 10 1</rect></_>
    <_>
      <rect>
        8 2 7 3</rect></_>
    <_>
      <rect>
        8 8 3 2</rect></_>
    <_>
      <rect>
        9 1 5 1</rect></_>
    <_>
      <rect>
        9 3 6 2</rect></_>
    <_>
      <rect>
        10 7 6 2</rect></_>
    <_>
      <rect>
        10 10 6 1</rect></_>
    <_>
      <rect>
        11 1 1 3</rect></_>
    <_>
      <rect>
        11 2 3 3</rect></_>
    <_>
      <rect>
        11 4 5 1</rect></_>
    <_>
      <rect>
        12 1 1 3</rect></_>
    <_>
      <rect>
        12 4 1 2</rect></_>
    <_>
      <rect>
        13 0 9 1</rect></_>
    <_>
      <rect>
        13 1 2 2</rect></_>
    <_>
      <rect>
        13 11 9 1</rect></_>
    <_>
      <rect>
        14 4 3 3</rect></_>
    <_>
      <rect>
        14 5 3 2</rect></_>
    <_>
      <rect>
        14 5 3 3</rect></_>
    <_>
      <rect>
        14 6 3 2</rect></_>
    <_>
      <rect>
        14 11 6 1</rect></_>
    <_>
      <rect>
        15 5 2 2</rect></_>
    <_>
      <rect>
        16 0 3 1</rect></_>
    <_>
      <rect>
        16 5 1 2</rect></_>
    <_>
      <rect>
        16 5 2 2</rect></_>
    <_>
      <rect>
        17 0 6 1</rect></_>
    <_>
      <rect>
        17 1 2 2</rect></_>
    <_>
      <rect>
        18 0 2 3</rect></_>
    <_>
      <rect>
        19 7 2 2</rect></_>
    <_>
      <rect>
        19 11 5 1</rect></_>
    <_>
      <rect>
        20 4 3 1</rect></_>
    <_>
      <rect>
        21 1 1 3</rect></_>
    <_>
      <rect>
        21 11 6 1</rect></_>
    <_>
      <rect>
        22 5 2 1</rect></_>
    <_>
      <rect>
        23 0 1 4</rect></_>
    <_>
      <rect>
        23 11 5 1</rect></_>
    <_>
      <rect>
        24 3 2 2</rect></_>
    <_>
      <rect>
        24 5 2 2</rect></_>
    <_>
      <rect>
        25 4 3 1</rect></_>
    <_>
      <rect>
        26 8 1 2</rect></_>
    <_>
      <rect>
        27 3 2 2</rect></_>
    <_>
      <rect>
        29 11 3 1</rect></_>
    <_>
      <rect>
        30 2 4 2</rect></_>
    <_>
      <rect>
        32 0 2 1</rect></_>
    <_>
      <rect>
        33 1 3 3</rect></_>
    <_>
      <rect>
        33 8 3 2</rect></_>
    <_>
      <rect>
        33 11 3 1</rect></_>
    <_>
      <rect>
        35 1 2 3</rect></_>
    <_>
      <rect>
        36 1 2 3</rect></_>
    <_>
      <rect>
        36 8 2 2</rect></_>
    <_>
      <rect>
        39 2 1 3</rect></_>
    <_>
      <rect>
        39 3 1 1</rect></_>
    <_>
      <rect>
        39 3 1 2</rect></_>
    <_>
      <rect>
        39 4 1 1</rect></_></features></cascade>
</opencv_storage>
