<?xml version="1.0"?>
<opencv_storage>
<cascade>
  <stageType>BOOST</stageType>
  <featureType>LBP</featureType>
  <height>18</height>
  <width>36</width>
  <stageParams>
    <boostType>GAB</boostType>
    <minHitRate>9.9500000476837158e-01</minHitRate>
    <maxFalseAlarm>4.4999998807907104e-01</maxFalseAlarm>
    <weightTrimRate>9.4999999999999996e-01</weightTrimRate>
    <maxDepth>1</maxDepth>
    <maxWeakCount>100</maxWeakCount></stageParams>
  <featureParams>
    <maxCatCount>256</maxCatCount>
    <featSize>1</featSize></featureParams>
  <stageNum>15</stageNum>
  <stages>
    <!-- stage 0 -->
    <_>
      <maxWeakCount>5</maxWeakCount>
      <stageThreshold>-1.1315891742706299e+00</stageThreshold>
      <weakClassifiers>
        <_>
          <internalNodes>
            0 -1 71 20 419437396 1024663551 -2769453 -1613119489
            -1146315059 -1432436801 -1145290774</internalNodes>
          <leafValues>
            -6.8558579683303833e-01 6.3679248094558716e-01</leafValues></_>
        <_>
          <internalNodes>
            0 -1 76 67109888 2136554527 -1089226241 -719921 -1432438594
            -1074091304 -1446109442 -1465381876</internalNodes>
          <leafValues>
            -6.8175607919692993e-01 5.1517778635025024e-01</leafValues></_>
        <_>
          <internalNodes>
            0 -1 16 -355472722 -972037618 -935115776 -368131922
            1912828755 1702354955 1649374020 -210241545</internalNodes>
          <leafValues>
            -6.9773137569427490e-01 4.5371291041374207e-01</leafValues></_>
        <_>
          <internalNodes>
            0 -1 30 262144 1068374479 1095830739 991442579 -1194570604
            -4257028 -34760481 -1103809</internalNodes>
          <leafValues>
            -6.6132634878158569e-01 4.2120867967605591e-01</leafValues></_>
        <_>
          <internalNodes>
            0 -1 163 -69207253 651939935 1125502976 168555219 -340793050
            2863205 -1040189952 -788529153</internalNodes>
          <leafValues>
            -5.3568303585052490e-01 5.1227539777755737e-01</leafValues></_></weakClassifiers></_>
    <!-- stage 1 -->
    <_>
      <maxWeakCount>5</maxWeakCount>
      <stageThreshold>-8.9071625471115112e-01</stageThreshold>
      <weakClassifiers>
        <_>
          <internalNodes>
            0 -1 160 -2102526 248335 -687094784 -1066408501 -203431421
            4431891 -221789440 -134217729</internalNodes>
          <leafValues>
            -6.2259888648986816e-01 5.0267618894577026e-01</leafValues></_>
        <_>
          <internalNodes>
            0 -1 124 -1073545214 -212889022 1079636195 -179321854
            -957877526 -1039728638 -1069298773 -799545598</internalNodes>
          <leafValues>
            -6.0503137111663818e-01 4.6733918786048889e-01</leafValues></_>
        <_>
          <internalNodes>
            0 -1 70 288365052 1609569756 420745727 1071448511 -24599555
            -2350691 -1627899137 999821228</internalNodes>
          <leafValues>
            -6.2239152193069458e-01 4.5454022288322449e-01</leafValues></_>
        <_>
          <internalNodes>
            0 -1 97 -1073495550 -212077552 1193763531 -170406045
            -525860945 -218939552 -340000769 -955791605</internalNodes>
          <leafValues>
            -4.8815056681632996e-01 5.5824530124664307e-01</leafValues></_>
        <_>
          <internalNodes>
            0 -1 38 8388824 -33815083 638720671 -42134884 549463807
            -5011270 -367858693 551551618</internalNodes>
          <leafValues>
            -6.6163635253906250e-01 4.0106019377708435e-01</leafValues></_></weakClassifiers></_>
    <!-- stage 2 -->
    <_>
      <maxWeakCount>8</maxWeakCount>
      <stageThreshold>-1.3955345153808594e+00</stageThreshold>
      <weakClassifiers>
        <_>
          <internalNodes>
            0 -1 12 -298850782 -1060124978 -1040153598 -902830002
            1091027255 1129539334 1683460613 -134220809</internalNodes>
          <leafValues>
            -5.9590566158294678e-01 4.9309173226356506e-01</leafValues></_>
        <_>
          <internalNodes>
            0 -1 91 268435600 -1244655116 1029717823 -1108003503
            -1182037571 -423734 -1331155285 -1346683201</internalNodes>
          <leafValues>
            -5.7859891653060913e-01 5.0198388099670410e-01</leafValues></_>
        <_>
          <internalNodes>
            0 -1 123 -33838342 285255866 17047560 463210888 1921826232
            6328 332929928 -69468161</internalNodes>
          <leafValues>
            -5.2346640825271606e-01 5.1349174976348877e-01</leafValues></_>
        <_>
          <internalNodes>
            0 -1 34 67112112 -1114101252 -1189869059 495458456 70262268
            -68675416 -1390723396 186648972</internalNodes>
          <leafValues>
            -7.2637259960174561e-01 3.4962016344070435e-01</leafValues></_>
        <_>
          <internalNodes>
            0 -1 62 -1073225214 -753460957 -1072208345 -683157885
            -415763538 -1789417650 1983243435 -732436669</internalNodes>
          <leafValues>
            -4.6379733085632324e-01 5.6209003925323486e-01</leafValues></_>
        <_>
          <internalNodes>
            0 -1 77 -502546398 -783052531 1073959191 -1055947381
            1644929514 -2136276479 -1073546309 1091031859</internalNodes>
          <leafValues>
            -5.4509049654006958e-01 4.2558404803276062e-01</leafValues></_>
        <_>
          <internalNodes>
            0 -1 138 -1073496062 -133741050 -1846018329 -170400637
            1086762670 -2136814560 -795102226 -1063000573</internalNodes>
          <leafValues>
            -4.6248286962509155e-01 5.1868611574172974e-01</leafValues></_>
        <_>
          <internalNodes>
            0 -1 111 -268458582 2031132674 395709320 937332864 868811168
            675287178 1376321704 2135945211</internalNodes>
          <leafValues>
            -5.3599596023559570e-01 4.4301798939704895e-01</leafValues></_></weakClassifiers></_>
    <!-- stage 3 -->
    <_>
      <maxWeakCount>7</maxWeakCount>
      <stageThreshold>-9.7626328468322754e-01</stageThreshold>
      <weakClassifiers>
        <_>
          <internalNodes>
            0 -1 54 353374612 -42723412 1569054713 -2764518 -1179894100
            -41374840 -72774981 -1157627392</internalNodes>
          <leafValues>
            -5.9098154306411743e-01 4.6347942948341370e-01</leafValues></_>
        <_>
          <internalNodes>
            0 -1 141 -1073511934 -685316602 -957354234 -681058302
            -969939537 -1233125730 -520098069 -757073009</internalNodes>
          <leafValues>
            -4.6918162703514099e-01 5.3005498647689819e-01</leafValues></_>
        <_>
          <internalNodes>
            0 -1 86 -67125270 1066176488 808984576 872190012 2107910620
            185088477 726671528 -2097218</internalNodes>
          <leafValues>
            -4.6513924002647400e-01 4.9545615911483765e-01</leafValues></_>
        <_>
          <internalNodes>
            0 -1 81 13631580 -572777480 1069521887 -537066021
            -1159020545 -72181251 788140031 -1475868672</internalNodes>
          <leafValues>
            -6.3504773378372192e-01 3.6614644527435303e-01</leafValues></_>
        <_>
          <internalNodes>
            0 -1 161 -67121406 13623979 -1046228992 -2001805686
            -620523709 1073981483 -405806336 -1023410177</internalNodes>
          <leafValues>
            -5.8710521459579468e-01 4.4328999519348145e-01</leafValues></_>
        <_>
          <internalNodes>
            0 -1 66 268438008 487855408 1560354749 -1623114800 478313468
            -1144479508 495192252 228071592</internalNodes>
          <leafValues>
            -7.0252084732055664e-01 2.9410389065742493e-01</leafValues></_>
        <_>
          <internalNodes>
            0 -1 104 -1065098750 -246947818 -536645399 -238815709
            -1566841941 -2113683450 -2112095249 -1069039033</internalNodes>
          <leafValues>
            -4.8274382948875427e-01 4.8472142219543457e-01</leafValues></_></weakClassifiers></_>
    <!-- stage 4 -->
    <_>
      <maxWeakCount>10</maxWeakCount>
      <stageThreshold>-1.1215074062347412e+00</stageThreshold>
      <weakClassifiers>
        <_>
          <internalNodes>
            0 -1 80 -1073496061 -2887681 1145505565 -715129769
            -268963857 -286267441 -180883477 -145758453</internalNodes>
          <leafValues>
            -4.0678557753562927e-01 5.7192105054855347e-01</leafValues></_>
        <_>
          <internalNodes>
            0 -1 40 1426076125 -11239433 396180447 2138390463 -10617347
            -15417347 -2642945 2069703339</internalNodes>
          <leafValues>
            -4.3444082140922546e-01 4.7383734583854675e-01</leafValues></_>
        <_>
          <internalNodes>
            0 -1 17 -269490582 -823464314 -2134465984 -389361990
            1666544993 1647659782 -12103152 -134750217</internalNodes>
          <leafValues>
            -5.5509299039840698e-01 3.6482420563697815e-01</leafValues></_>
        <_>
          <internalNodes>
            0 -1 69 335581556 -42707660 1552268733 -8836079 -1205297924
            -1734857064 -324227924 -1207170424</internalNodes>
          <leafValues>
            -5.0096267461776733e-01 4.1481718420982361e-01</leafValues></_>
        <_>
          <internalNodes>
            0 -1 152 229419 -209780741 -235012353 -613942321 -28315905
            -872415745 -1040449873 -1064844542</internalNodes>
          <leafValues>
            -4.3097272515296936e-01 4.5764714479446411e-01</leafValues></_>
        <_>
          <internalNodes>
            0 -1 116 -100685570 713566968 963510988 320373212 1961697692
            180510953 1694439660 1470627743</internalNodes>
          <leafValues>
            -5.6145566701889038e-01 3.3812394738197327e-01</leafValues></_>
        <_>
          <internalNodes>
            0 -1 29 100663476 -3042704 -1992218113 2006194140
            -1362491137 -2424645 -5648705 -1967128080</internalNodes>
          <leafValues>
            -5.2533459663391113e-01 3.5392826795578003e-01</leafValues></_>
        <_>
          <internalNodes>
            0 -1 101 -11544650 1066414792 285213456 -2606574 583594972
            218118536 557582728 -306</internalNodes>
          <leafValues>
            -4.5520931482315063e-01 4.2317685484886169e-01</leafValues></_>
        <_>
          <internalNodes>
            0 -1 41 -1073495421 -34868314 -35031077 -81559681 -523439128
            -26230985 -2138773878 -1041242737</internalNodes>
          <leafValues>
            -3.1471559405326843e-01 5.9666180610656738e-01</leafValues></_>
        <_>
          <internalNodes>
            0 -1 87 134259184 -1207946864 1024925117 -1117741199
            -1080185929 -7634245 -1709209412 -1162534799</internalNodes>
          <leafValues>
            -5.1263880729675293e-01 3.8730156421661377e-01</leafValues></_></weakClassifiers></_>
    <!-- stage 5 -->
    <_>
      <maxWeakCount>10</maxWeakCount>
      <stageThreshold>-1.6210550069808960e+00</stageThreshold>
      <weakClassifiers>
        <_>
          <internalNodes>
            0 -1 155 -2101375225 69196191 -394792689 -239085869
            1881142119 1123795155 -822087250 -486539265</internalNodes>
          <leafValues>
            -5.0622135400772095e-01 4.2005544900894165e-01</leafValues></_>
        <_>
          <internalNodes>
            0 -1 31 -1339424720 -9428014 523714039 929046528 295181759
            -62813 1924795327 -2146773</internalNodes>
          <leafValues>
            -5.0234359502792358e-01 3.6318147182464600e-01</leafValues></_>
        <_>
          <internalNodes>
            0 -1 114 -1064574430 -222575294 1113762623 -207627998
            -1576011030 -491065174 -463539317 1073997314</internalNodes>
          <leafValues>
            -5.6991362571716309e-01 3.2597339153289795e-01</leafValues></_>
        <_>
          <internalNodes>
            0 -1 14 -338696465 -422583506 1759954798 -301537586
            1733763959 1383295031 -146283001 -134219777</internalNodes>
          <leafValues>
            -4.5088911056518555e-01 3.8441386818885803e-01</leafValues></_>
        <_>
          <internalNodes>
            0 -1 27 896568828 -1074252840 -1754004995 532459610
            212867260 -1107557124 1038424573 135797036</internalNodes>
          <leafValues>
            -6.0290712118148804e-01 2.7784070372581482e-01</leafValues></_>
        <_>
          <internalNodes>
            0 -1 139 -243287302 291566322 141328476 958687480 818788824
            293646752 1504569544 -67109969</internalNodes>
          <leafValues>
            -4.0381547808647156e-01 4.0789937973022461e-01</leafValues></_>
        <_>
          <internalNodes>
            0 -1 122 -1135990 1000874960 752877600 466519212 1005205224
            675310046 118893198 1238365695</internalNodes>
          <leafValues>
            -5.6136018037796021e-01 2.8674939274787903e-01</leafValues></_>
        <_>
          <internalNodes>
            0 -1 53 285230544 1603285393 1031740927 -1148958950
            1963792476 -1165367090 1021585919 486501675</internalNodes>
          <leafValues>
            -5.6618553400039673e-01 2.9611474275588989e-01</leafValues></_>
        <_>
          <internalNodes>
            0 -1 28 -517775344 -146852034 -644620801 -2114647
            -1437906497 -86337429 -393696002 -1475674112</internalNodes>
          <leafValues>
            -4.2873978614807129e-01 3.4760397672653198e-01</leafValues></_>
        <_>
          <internalNodes>
            0 -1 94 1078427650 -1480989757 1636291919 -204483021
            -476058689 -17006533 -192290898 -800594390</internalNodes>
          <leafValues>
            -4.8171666264533997e-01 3.1618660688400269e-01</leafValues></_></weakClassifiers></_>
    <!-- stage 6 -->
    <_>
      <maxWeakCount>11</maxWeakCount>
      <stageThreshold>-1.2827157974243164e+00</stageThreshold>
      <weakClassifiers>
        <_>
          <internalNodes>
            0 -1 164 -254 15922431 -977299968 -1593838697 -18352383
            75479551 -1051904 -184549441</internalNodes>
          <leafValues>
            -5.8010739088058472e-01 2.8901302814483643e-01</leafValues></_>
        <_>
          <internalNodes>
            0 -1 4 -294967761 -878186833 -491820417 -1118490 1969710975
            1735882751 2004842367 -1</internalNodes>
          <leafValues>
            -3.7647312879562378e-01 4.4337275624275208e-01</leafValues></_>
        <_>
          <internalNodes>
            0 -1 78 -66082 431010492 721420536 957391356 1541159160
            436217588 1900818908 2147483647</internalNodes>
          <leafValues>
            -4.9568274617195129e-01 3.1543681025505066e-01</leafValues></_>
        <_>
          <internalNodes>
            0 -1 63 290461661 -33996961 -1618233861 1071201242
            -175114753 -1176962482 1338764795 180355976</internalNodes>
          <leafValues>
            -5.7554852962493896e-01 2.9411214590072632e-01</leafValues></_>
        <_>
          <internalNodes>
            0 -1 119 -860323650 -541325166 572005560 -6448885
            -1400069124 -24903484 -1155691522 -545407169</internalNodes>
          <leafValues>
            -4.5495247840881348e-01 3.2816058397293091e-01</leafValues></_>
        <_>
          <internalNodes>
            0 -1 109 -338706430 -550870750 -1878293673 -681590526
            -166738465 -68179294 -673190198 1074520322</internalNodes>
          <leafValues>
            -4.6881011128425598e-01 3.2084804773330688e-01</leafValues></_>
        <_>
          <internalNodes>
            0 -1 32 -1082385028 532424188 -1091553796 1066940730
            -1156838404 -1379980911 1069549752 -1082253384</internalNodes>
          <leafValues>
            -4.9592861533164978e-01 2.7856069803237915e-01</leafValues></_>
        <_>
          <internalNodes>
            0 -1 158 -1962990334 18867517 -753150960 -1604454530
            1973383971 538431647 -1070861632 -1023412485</internalNodes>
          <leafValues>
            -4.9516552686691284e-01 2.9508915543556213e-01</leafValues></_>
        <_>
          <internalNodes>
            0 -1 58 1346635024 -41876203 838612991 1470127033
            -1580680001 2091690146 -1431815686 390342408</internalNodes>
          <leafValues>
            -5.9500992298126221e-01 2.2086399793624878e-01</leafValues></_>
        <_>
          <internalNodes>
            0 -1 144 -425220814 535226521 -548665272 420122188 517841292
            402956223 1442809836 -538443793</internalNodes>
          <leafValues>
            -3.6363378167152405e-01 4.0157413482666016e-01</leafValues></_>
        <_>
          <internalNodes>
            0 -1 103 1073930883 -774912009 1428019583 -715679109
            -66137861 -641220590 -1011901553 -1073229429</internalNodes>
          <leafValues>
            -3.9099892973899841e-01 3.9034131169319153e-01</leafValues></_></weakClassifiers></_>
    <!-- stage 7 -->
    <_>
      <maxWeakCount>11</maxWeakCount>
      <stageThreshold>-1.1057239770889282e+00</stageThreshold>
      <weakClassifiers>
        <_>
          <internalNodes>
            0 -1 59 -1073495933 -678997665 -706818561 -178785845
            -191901457 -565746485 -543961617 -1052523057</internalNodes>
          <leafValues>
            -3.7506765127182007e-01 4.6880570054054260e-01</leafValues></_>
        <_>
          <internalNodes>
            0 -1 15 -405806097 -823136401 -856757082 -353375794
            2009068071 1735647859 -136841353 -134217729</internalNodes>
          <leafValues>
            -4.3566167354583740e-01 3.6605897545814514e-01</leafValues></_>
        <_>
          <internalNodes>
            0 -1 146 16754178 -1866481201 -1238370337 -234914857
            -94377121 -1996872785 -527716630 -2130706689</internalNodes>
          <leafValues>
            -5.0979322195053101e-01 2.8614249825477600e-01</leafValues></_>
        <_>
          <internalNodes>
            0 -1 60 489953276 1006385904 -1250150467 -1086580866
            186386936 -1508147 -304603652 -1075045316</internalNodes>
          <leafValues>
            -5.1819789409637451e-01 2.8307336568832397e-01</leafValues></_>
        <_>
          <internalNodes>
            0 -1 98 -139754206 -203426153 -547105961 -613185981
            -120084049 -320106336 -893403205 1131406058</internalNodes>
          <leafValues>
            -3.9534735679626465e-01 3.7579467892646790e-01</leafValues></_>
        <_>
          <internalNodes>
            0 -1 130 -8418626 503091380 67373720 1067189130 218672796
            1028658201 1057233292 -513</internalNodes>
          <leafValues>
            -4.2171582579612732e-01 3.2932344079017639e-01</leafValues></_>
        <_>
          <internalNodes>
            0 -1 0 606498338 -542130014 1895251255 1430458626 1107751659
            -338246969 1695546271 1732736087</internalNodes>
          <leafValues>
            -4.6848702430725098e-01 3.1390014290809631e-01</leafValues></_>
        <_>
          <internalNodes>
            0 -1 68 -737799919 -4505793 2042052605 -12602381 -799246916
            -1079951444 -185205571 -269238390</internalNodes>
          <leafValues>
            -3.6606946587562561e-01 3.8847473263740540e-01</leafValues></_>
        <_>
          <internalNodes>
            0 -1 95 -865468412 1998565435 -677938179 -540594117
            -1825882113 -10511945 -635524356 -1942093824</internalNodes>
          <leafValues>
            -5.0503420829772949e-01 2.7480033040046692e-01</leafValues></_>
        <_>
          <internalNodes>
            0 -1 162 -537137401 12833727 -502043904 1089190796
            -1018210810 1109038603 -1310271744 -184549381</internalNodes>
          <leafValues>
            -4.6874895691871643e-01 3.1296932697296143e-01</leafValues></_>
        <_>
          <internalNodes>
            0 -1 105 -69817520 999818896 -644675072 -1289704678 56496536
            974267491 1036730344 1599076350</internalNodes>
          <leafValues>
            -5.3080624341964722e-01 2.7049133181571960e-01</leafValues></_></weakClassifiers></_>
    <!-- stage 8 -->
    <_>
      <maxWeakCount>12</maxWeakCount>
      <stageThreshold>-1.5055572986602783e+00</stageThreshold>
      <weakClassifiers>
        <_>
          <internalNodes>
            0 -1 153 -1057030140 1574946051 -740559489 -3154945
            -996151666 -67137057 8711818 -1459618033</internalNodes>
          <leafValues>
            -4.2355889081954956e-01 3.7054112553596497e-01</leafValues></_>
        <_>
          <internalNodes>
            0 -1 83 -1069506046 -3147073 -714091137 -3178567 -1394868273
            -73684861 -337907233 -69997749</internalNodes>
          <leafValues>
            -4.0331789851188660e-01 3.6199384927749634e-01</leafValues></_>
        <_>
          <internalNodes>
            0 -1 7 -282072277 711977926 -389044796 -691285074 1900503863
            1467461691 2078799837 -134744073</internalNodes>
          <leafValues>
            -3.7218493223190308e-01 3.9399796724319458e-01</leafValues></_>
        <_>
          <internalNodes>
            0 -1 121 -1072970110 -202143681 -470819333 -136316050
            -357572689 -336596309 -1058546197 1362097614</internalNodes>
          <leafValues>
            -3.9347946643829346e-01 3.5276982188224792e-01</leafValues></_>
        <_>
          <internalNodes>
            0 -1 102 1003494576 1072694780 1033650141 1072961397
            517487612 1069286308 -1075036163 450379000</internalNodes>
          <leafValues>
            -6.7931276559829712e-01 2.2426170110702515e-01</leafValues></_>
        <_>
          <internalNodes>
            0 -1 137 -1073741816 -586860178 -1404550919 -716877673
            -253099812 -908591100 -387990531 -119805185</internalNodes>
          <leafValues>
            -4.8878890275955200e-01 2.5015780329704285e-01</leafValues></_>
        <_>
          <internalNodes>
            0 -1 45 861339826 -1144055448 257700784 -1081533990
            953231758 781716028 821902319 -2097185</internalNodes>
          <leafValues>
            -4.0018874406814575e-01 3.5065442323684692e-01</leafValues></_>
        <_>
          <internalNodes>
            0 -1 22 -279517222 -3403777 -1985289988 1068514296
            1271136764 460344701 1340150489 1609588732</internalNodes>
          <leafValues>
            -4.9826344847679138e-01 2.7094477415084839e-01</leafValues></_>
        <_>
          <internalNodes>
            0 -1 100 -341053681 1243988775 -390116608 -774900722
            -415767857 1137147710 -210250506 -136314881</internalNodes>
          <leafValues>
            -3.3275696635246277e-01 4.0732103586196899e-01</leafValues></_>
        <_>
          <internalNodes>
            0 -1 142 -2111140014 -405114913 -13066251 -1151384687
            -1903237123 -2106418 -356454417 -1434311806</internalNodes>
          <leafValues>
            -3.7124043703079224e-01 3.5607641935348511e-01</leafValues></_>
        <_>
          <internalNodes>
            0 -1 147 -1587666 4709630 -1034717694 14349534 2051012929
            10148259 -134481663 1414004699</internalNodes>
          <leafValues>
            -7.3774188756942749e-01 1.9265139102935791e-01</leafValues></_>
        <_>
          <internalNodes>
            0 -1 43 -712437760 2102335936 -1657414699 -1114555055
            -1613220628 -1084407552 553517016 443445316</internalNodes>
          <leafValues>
            -5.1415991783142090e-01 2.2656092047691345e-01</leafValues></_></weakClassifiers></_>
    <!-- stage 9 -->
    <_>
      <maxWeakCount>13</maxWeakCount>
      <stageThreshold>-1.0785216093063354e+00</stageThreshold>
      <weakClassifiers>
        <_>
          <internalNodes>
            0 -1 35 -784313891 -2293793 288425151 -2279441 -6946817
            -117430072 -36843537 -1056821</internalNodes>
          <leafValues>
            -3.3903035521507263e-01 4.5448818802833557e-01</leafValues></_>
        <_>
          <internalNodes>
            0 -1 37 1298519 1905486833 1898938335 1964455925 540670463
            -1087111233 1155518367 4440582</internalNodes>
          <leafValues>
            -4.1682696342468262e-01 3.3542725443840027e-01</leafValues></_>
        <_>
          <internalNodes>
            0 -1 126 -25890 1998242546 2132420760 2078849018 2100564152
            963659669 1542269180 2103441407</internalNodes>
          <leafValues>
            -4.4722837209701538e-01 2.9583036899566650e-01</leafValues></_>
        <_>
          <internalNodes>
            0 -1 21 -336130 -4538630 -72429826 1604873406 1576946844
            -604676270 -564372264 -548250369</internalNodes>
          <leafValues>
            -3.4256321191787720e-01 3.8541832566261292e-01</leafValues></_>
        <_>
          <internalNodes>
            0 -1 157 788499983 78682031 -610552572 -1848133678
            -605588409 27251251 -86275296 -452984833</internalNodes>
          <leafValues>
            -4.2739653587341309e-01 3.1468886137008667e-01</leafValues></_>
        <_>
          <internalNodes>
            0 -1 129 -17071992 -82666552 2082144268 2145695648
            1042811309 1061319911 1443632540 1601174222</internalNodes>
          <leafValues>
            -5.2671432495117188e-01 2.1994121372699738e-01</leafValues></_>
        <_>
          <internalNodes>
            0 -1 84 134259653 -1694320186 -1482424321 -143925551
            -1353864497 -1347942168 -283461121 -1178325103</internalNodes>
          <leafValues>
            -4.0252542495727539e-01 3.1188529729843140e-01</leafValues></_>
        <_>
          <internalNodes>
            0 -1 65 -353370614 1798020070 -964680726 -184355449
            1174372938 329656105 -1295788608 -135004161</internalNodes>
          <leafValues>
            -4.1937479376792908e-01 2.9932251572608948e-01</leafValues></_>
        <_>
          <internalNodes>
            0 -1 92 2111815676 1599907420 491798332 -537322616 54528232
            -338163576 1592040188 -67110913</internalNodes>
          <leafValues>
            -3.5893958806991577e-01 3.5004481673240662e-01</leafValues></_>
        <_>
          <internalNodes>
            0 -1 166 -513 422247096 -1057636 -1089552387 -62943608
            138412023 -42492800 -1119879717</internalNodes>
          <leafValues>
            -2.6492440700531006e-01 4.6535709500312805e-01</leafValues></_>
        <_>
          <internalNodes>
            0 -1 74 -803766117 -608851853 2041241023 -36462429
            -830473313 -1948277856 -275002881 -787758949</internalNodes>
          <leafValues>
            -2.6536831259727478e-01 4.7008103132247925e-01</leafValues></_>
        <_>
          <internalNodes>
            0 -1 115 -1142017408 -75970016 27272204 1892950442 708787365
            149949860 1425880920 1101332222</internalNodes>
          <leafValues>
            -5.7564556598663330e-01 2.3929047584533691e-01</leafValues></_>
        <_>
          <internalNodes>
            0 -1 13 1810883370 1780188358 1611368680 -1362221458
            1662153252 1445358435 2001958773 2002219639</internalNodes>
          <leafValues>
            -7.3415631055831909e-01 1.4111998677253723e-01</leafValues></_></weakClassifiers></_>
    <!-- stage 10 -->
    <_>
      <maxWeakCount>14</maxWeakCount>
      <stageThreshold>-1.3285338878631592e+00</stageThreshold>
      <weakClassifiers>
        <_>
          <internalNodes>
            0 -1 50 -654355243 -262913 221992797 1538720915 -394478120
            -98577 -649200129 -67108965</internalNodes>
          <leafValues>
            -3.1309363245964050e-01 4.4639894366264343e-01</leafValues></_>
        <_>
          <internalNodes>
            0 -1 19 -286265618 -286891578 -301798234 -361830326
            1192718421 1883465061 -787131197 -134743177</internalNodes>
          <leafValues>
            -4.8251372575759888e-01 2.6683706045150757e-01</leafValues></_>
        <_>
          <internalNodes>
            0 -1 52 -2079929726 -2113585 -1128269313 495290778
            -1998665041 -1049137 -1428173061 -1910306302</internalNodes>
          <leafValues>
            -3.9381647109985352e-01 3.1201609969139099e-01</leafValues></_>
        <_>
          <internalNodes>
            0 -1 85 -1860132208 -78578252 -1745209345 -13624960
            1262444543 -1076039396 1005476607 995098672</internalNodes>
          <leafValues>
            -4.7351798415184021e-01 2.8958338499069214e-01</leafValues></_>
        <_>
          <internalNodes>
            0 -1 72 -1064964 990390844 427821340 996150924 1006670764
            991955380 421007004 -269347</internalNodes>
          <leafValues>
            -4.6112993359565735e-01 2.4932533502578735e-01</leafValues></_>
        <_>
          <internalNodes>
            0 -1 154 67079431 150993723 71817789 -2139423761 -1043341821
            59957627 -139601784 -1731724289</internalNodes>
          <leafValues>
            -4.4749864935874939e-01 2.5348764657974243e-01</leafValues></_>
        <_>
          <internalNodes>
            0 -1 49 1355755658 1977478867 815206564 1977035476
            1238366971 267274590 -74663297 1892596426</internalNodes>
          <leafValues>
            -4.6636793017387390e-01 2.6220443844795227e-01</leafValues></_>
        <_>
          <internalNodes>
            0 -1 51 2147467260 532452173 -43827715 -1217055078 753971704
            494665904 516200382 997046014</internalNodes>
          <leafValues>
            -4.0472748875617981e-01 2.9735934734344482e-01</leafValues></_>
        <_>
          <internalNodes>
            0 -1 136 -1024472437 -209721601 2075916927 -203424253
            -1862537489 -668275066 -1057513489 -776995409</internalNodes>
          <leafValues>
            -2.7244195342063904e-01 4.6101731061935425e-01</leafValues></_>
        <_>
          <internalNodes>
            0 -1 150 -67109716 1056982327 -884024268 1034800075
            -1209264244 1058773133 -1662668784 -1641030285</internalNodes>
          <leafValues>
            -3.4828582406044006e-01 3.3140233159065247e-01</leafValues></_>
        <_>
          <internalNodes>
            0 -1 113 -605237250 2145134672 477890736 1071253208
            -1895762468 1051338864 468233432 -8736785</internalNodes>
          <leafValues>
            -3.5859769582748413e-01 3.3230432868003845e-01</leafValues></_>
        <_>
          <internalNodes>
            0 -1 120 1081111347 1979699503 -1223173669 -943479981
            37302223 -6347889 1438972879 1073969666</internalNodes>
          <leafValues>
            -4.1908574104309082e-01 2.7238705754280090e-01</leafValues></_>
        <_>
          <internalNodes>
            0 -1 0 -859690462 -408791264 1362870585 900965474 1731082151
            -829517513 1888990191 -1033374363</internalNodes>
          <leafValues>
            -3.8828590512275696e-01 3.1671464443206787e-01</leafValues></_>
        <_>
          <internalNodes>
            0 -1 89 -1015038206 1511836114 -78298798 -221251545
            -940835633 1363238976 -154671919 -137887809</internalNodes>
          <leafValues>
            -3.7009325623512268e-01 3.2544624805450439e-01</leafValues></_></weakClassifiers></_>
    <!-- stage 11 -->
    <_>
      <maxWeakCount>15</maxWeakCount>
      <stageThreshold>-1.4683995246887207e+00</stageThreshold>
      <weakClassifiers>
        <_>
          <internalNodes>
            0 -1 9 -365957457 -269488657 -857321797 -492110260
            1730369399 2012176917 2136963063 -526345</internalNodes>
          <leafValues>
            -4.1403508186340332e-01 3.1892389059066772e-01</leafValues></_>
        <_>
          <internalNodes>
            0 -1 125 -754720637 -145030578 -1604063233 -9968314
            -496504918 -17078957 1629221871 -169609345</internalNodes>
          <leafValues>
            -2.7360364794731140e-01 4.4716605544090271e-01</leafValues></_>
        <_>
          <internalNodes>
            0 -1 28 -334625792 -14681299 -541328897 -34079819
            -1612979971 -67113825 -40075032 -1397809152</internalNodes>
          <leafValues>
            -4.1866955161094666e-01 2.8572413325309753e-01</leafValues></_>
        <_>
          <internalNodes>
            0 -1 148 -1354776052 271119951 -72362224 941683590
            -372244552 136378287 -609234956 -1192232961</internalNodes>
          <leafValues>
            -4.5833292603492737e-01 2.4874490499496460e-01</leafValues></_>
        <_>
          <internalNodes>
            0 -1 82 -656801094 -1288683530 -2000679461 2141206493
            -1074872323 -542932245 -1494085895 -1142407177</internalNodes>
          <leafValues>
            -3.8880479335784912e-01 3.0604282021522522e-01</leafValues></_>
        <_>
          <internalNodes>
            0 -1 56 -2136742142 -203455689 1326687573 -617631444
            -352388950 -1196710430 -674583410 1078969346</internalNodes>
          <leafValues>
            -4.5704048871994019e-01 2.3741361498832703e-01</leafValues></_>
        <_>
          <internalNodes>
            0 -1 107 -1073553277 -681838015 -1094527049 -637800275
            -1627675729 -1911904864 -457184805 -788479862</internalNodes>
          <leafValues>
            -3.1670939922332764e-01 3.5761344432830811e-01</leafValues></_>
        <_>
          <internalNodes>
            0 -1 79 387194876 -1649398795 1010244093 501562013
            2132606973 1839213300 1857338367 1066942128</internalNodes>
          <leafValues>
            -5.9198862314224243e-01 1.6486838459968567e-01</leafValues></_>
        <_>
          <internalNodes>
            0 -1 99 -218111358 1346552079 816181888 -1281168802
            2027147968 1179115618 -153946888 2013002687</internalNodes>
          <leafValues>
            -4.9596974253654480e-01 2.3916998505592346e-01</leafValues></_>
        <_>
          <internalNodes>
            0 -1 39 75497600 -138410239 865890301 289414443 -1126945368
            -1446756652 -1667245315 -70452515</internalNodes>
          <leafValues>
            -5.2455854415893555e-01 2.0321974158287048e-01</leafValues></_>
        <_>
          <internalNodes>
            0 -1 96 -2005958642 -77901125 1678951451 1364186750
            -1288718662 -1640774559 -355798098 1076814379</internalNodes>
          <leafValues>
            -4.2971473932266235e-01 2.5745406746864319e-01</leafValues></_>
        <_>
          <internalNodes>
            0 -1 156 -1174409977 138331770 -711735796 -2109753349
            -110166267 362924579 -1428427008 -386400529</internalNodes>
          <leafValues>
            -3.4834834933280945e-01 3.2031142711639404e-01</leafValues></_>
        <_>
          <internalNodes>
            0 -1 57 -544208848 -546008512 -1123012208 -1382209512
            595634585 -1692792552 777882875 -335805265</internalNodes>
          <leafValues>
            -4.3257603049278259e-01 2.5573647022247314e-01</leafValues></_>
        <_>
          <internalNodes>
            0 -1 2 704809170 -34316329 1703444471 529531324 -1014534217
            -1147596417 -1461211137 1749042002</internalNodes>
          <leafValues>
            -4.9990031123161316e-01 2.1384839713573456e-01</leafValues></_>
        <_>
          <internalNodes>
            0 -1 134 -536964964 -616525640 282733584 837356624 -74547301
            234901928 444992250 1586757598</internalNodes>
          <leafValues>
            -4.1537562012672424e-01 2.6713356375694275e-01</leafValues></_></weakClassifiers></_>
    <!-- stage 12 -->
    <_>
      <maxWeakCount>15</maxWeakCount>
      <stageThreshold>-1.4047870635986328e+00</stageThreshold>
      <weakClassifiers>
        <_>
          <internalNodes>
            0 -1 165 -2302 -2064669753 -1227886592 284537815 -553651193
            80400523 -17827840 -520093797</internalNodes>
          <leafValues>
            -4.8905938863754272e-01 2.2634507715702057e-01</leafValues></_>
        <_>
          <internalNodes>
            0 -1 64 -586477089 -1739049 -376836705 -67535183 -1863711521
            -39906211 -55681665 -4519525</internalNodes>
          <leafValues>
            -2.9972866177558899e-01 3.9937162399291992e-01</leafValues></_>
        <_>
          <internalNodes>
            0 -1 6 -368054737 -386994705 -1408881074 -460395570
            1412653943 2008510935 2001149943 -134742057</internalNodes>
          <leafValues>
            -3.6805298924446106e-01 3.0004048347473145e-01</leafValues></_>
        <_>
          <internalNodes>
            0 -1 151 67113012 -35739137 1057372155 -33829 -1361273926
            -288337 -645481541 142608384</internalNodes>
          <leafValues>
            -5.9330224990844727e-01 1.8238928914070129e-01</leafValues></_>
        <_>
          <internalNodes>
            0 -1 75 -1072701301 -671366845 -16816801 -214179585
            -287576661 -1898205966 -910775361 -796397174</internalNodes>
          <leafValues>
            -2.7409136295318604e-01 3.9939814805984497e-01</leafValues></_>
        <_>
          <internalNodes>
            0 -1 145 -210260430 -550458918 -817164360 522852214
            1608063412 523835127 1767140330 2142619599</internalNodes>
          <leafValues>
            -4.2007333040237427e-01 2.5036361813545227e-01</leafValues></_>
        <_>
          <internalNodes>
            0 -1 106 -668991480 -571137128 134225789 2036082857
            -1355239426 -1097843932 -65229377 -1409278696</internalNodes>
          <leafValues>
            -4.4620364904403687e-01 2.5361731648445129e-01</leafValues></_>
        <_>
          <internalNodes>
            0 -1 23 -13640710 -1621752264 913482714 -1083040236
            1576750572 498139137 439618008 1870552502</internalNodes>
          <leafValues>
            -4.1628214716911316e-01 2.6402309536933899e-01</leafValues></_>
        <_>
          <internalNodes>
            0 -1 67 -787246445 -749212077 -935551043 -172779723
            -94817285 -1938471563 -918498631 -708587333</internalNodes>
          <leafValues>
            -2.7984970808029175e-01 4.1098093986511230e-01</leafValues></_>
        <_>
          <internalNodes>
            0 -1 128 -243202912 1407021568 -779528369 1418547202
            -1442076737 -926219147 -1364246390 1075266562</internalNodes>
          <leafValues>
            -4.9520006775856018e-01 2.2138561308383942e-01</leafValues></_>
        <_>
          <internalNodes>
            0 -1 5 1372927212 -227213382 538535388 1526273482 -775685636
            1359217696 1892498367 1106549226</internalNodes>
          <leafValues>
            -4.6740746498107910e-01 2.2221027314662933e-01</leafValues></_>
        <_>
          <internalNodes>
            0 -1 18 -680105346 -50672006 -61043722 -20652580 1167148304
            1297171281 1564541172 2135252980</internalNodes>
          <leafValues>
            -5.8021813631057739e-01 1.6776110231876373e-01</leafValues></_>
        <_>
          <internalNodes>
            0 -1 93 -67190785 2138815230 513028533 2138649213
            -1351045460 -1073866056 737192892 -1073793345</internalNodes>
          <leafValues>
            -2.7366468310356140e-01 3.9427521824836731e-01</leafValues></_>
        <_>
          <internalNodes>
            0 -1 111 -18374216 2066660528 -846658680 1998192784
            -353720643 1050333580 1196495962 2131548142</internalNodes>
          <leafValues>
            -4.2084836959838867e-01 2.6041650772094727e-01</leafValues></_>
        <_>
          <internalNodes>
            0 -1 36 41815722 800667216 41947696 403091603 214502100
            766251320 1196506010 1559027679</internalNodes>
          <leafValues>
            -5.5139392614364624e-01 1.8117542564868927e-01</leafValues></_></weakClassifiers></_>
    <!-- stage 13 -->
    <_>
      <maxWeakCount>17</maxWeakCount>
      <stageThreshold>-1.1453258991241455e+00</stageThreshold>
      <weakClassifiers>
        <_>
          <internalNodes>
            0 -1 1 -1432179870 -1847809 -148681217 1998594402
            -1570247433 -536941 -3675137 -8947853</internalNodes>
          <leafValues>
            -3.7709194421768188e-01 2.8644382953643799e-01</leafValues></_>
        <_>
          <internalNodes>
            0 -1 26 2065162207 2135953240 890785663 1561586171
            1365013981 1228145616 1576886525 2103312095</internalNodes>
          <leafValues>
            -3.3218267560005188e-01 3.1739917397499084e-01</leafValues></_>
        <_>
          <internalNodes>
            0 -1 159 -4349 10484095 -379912926 299367819 -336673018
            1085845711 -69209856 -35652609</internalNodes>
          <leafValues>
            -3.6497038602828979e-01 2.8210833668708801e-01</leafValues></_>
        <_>
          <internalNodes>
            0 -1 90 -1879000591 -1281348623 2134636927 -1223216813
            -70255697 -1157948165 -1362818049 -1409306038</internalNodes>
          <leafValues>
            -3.1854087114334106e-01 3.4325140714645386e-01</leafValues></_>
        <_>
          <internalNodes>
            0 -1 135 1414922256 1543083153 536870928 2009669737
            -1604542325 -1125515136 -1492341106 -627049989</internalNodes>
          <leafValues>
            -3.3447694778442383e-01 3.0122682452201843e-01</leafValues></_>
        <_>
          <internalNodes>
            0 -1 24 1976806840 -1108554788 1001602460 -1075995302
            1912421613 285221532 -104023846 2131593870</internalNodes>
          <leafValues>
            -4.2866972088813782e-01 2.1284209191799164e-01</leafValues></_>
        <_>
          <internalNodes>
            0 -1 117 -337643958 1125043050 -470160768 1405681036
            -221252907 5676195 -1293565824 1362353599</internalNodes>
          <leafValues>
            -4.1978845000267029e-01 2.3867085576057434e-01</leafValues></_>
        <_>
          <internalNodes>
            0 -1 42 -416873417 2144887222 744295231 -1183394817
            774638665 -73530752 686489834 -67166793</internalNodes>
          <leafValues>
            -3.3158728480339050e-01 2.9727581143379211e-01</leafValues></_>
        <_>
          <internalNodes>
            0 -1 108 -564138855 461664083 -1448593027 -1074405509
            -273705219 -1090834952 9517264 -1073768171</internalNodes>
          <leafValues>
            -2.3852770030498505e-01 4.2410340905189514e-01</leafValues></_>
        <_>
          <internalNodes>
            0 -1 61 -804011381 -551435525 -581741159 -779267455
            -1882200145 -541104658 -822415634 -985145213</internalNodes>
          <leafValues>
            -2.0804791152477264e-01 4.3163785338401794e-01</leafValues></_>
        <_>
          <internalNodes>
            0 -1 133 -12914272 -611707484 122821916 1504191292
            -1429179970 2660282 84317480 1909456895</internalNodes>
          <leafValues>
            -4.2466604709625244e-01 2.1644283831119537e-01</leafValues></_>
        <_>
          <internalNodes>
            0 -1 131 -2061351919 -209473217 -1616953217 -4759969
            -531684929 -33912181 1802111999 -1576845312</internalNodes>
          <leafValues>
            -3.3507487177848816e-01 2.8946039080619812e-01</leafValues></_>
        <_>
          <internalNodes>
            0 -1 11 1730637347 -1911581365 -26880450 -127472190
            1595365183 1462474007 1965503543 -139462793</internalNodes>
          <leafValues>
            -3.8459211587905884e-01 2.4876394867897034e-01</leafValues></_>
        <_>
          <internalNodes>
            0 -1 55 -72371542 -11491192 -401592328 1031613257
            -1653237365 999302136 962137755 -545923721</internalNodes>
          <leafValues>
            -3.3601137995719910e-01 3.0424886941909790e-01</leafValues></_>
        <_>
          <internalNodes>
            0 -1 3 1893180322 -35702963 901136269 -136459297 1950393327
            -28168566 2038435822 93562882</internalNodes>
          <leafValues>
            -3.6003091931343079e-01 2.8246212005615234e-01</leafValues></_>
        <_>
          <internalNodes>
            0 -1 110 -1003830072 -108072268 -869513904 -903228534
            1312614381 180766082 2030499755 1124847626</internalNodes>
          <leafValues>
            -4.3898174166679382e-01 2.4246594309806824e-01</leafValues></_>
        <_>
          <internalNodes>
            0 -1 73 1058808316 -1210310920 530386005 -6483618 160962456
            190579119 1938308088 1073227976</internalNodes>
          <leafValues>
            -6.4721792936325073e-01 1.3738234341144562e-01</leafValues></_></weakClassifiers></_>
    <!-- stage 14 -->
    <_>
      <maxWeakCount>18</maxWeakCount>
      <stageThreshold>-1.1087274551391602e+00</stageThreshold>
      <weakClassifiers>
        <_>
          <internalNodes>
            0 -1 149 -8390896 268497692 -272633584 805371189 -336595326
            -1934691923 -1050216 1027604223</internalNodes>
          <leafValues>
            -4.8946416378021240e-01 2.0136030018329620e-01</leafValues></_>
        <_>
          <internalNodes>
            0 -1 44 1431584221 -4850769 2147416447 -722078 2113748924
            -1564758 2079843311 -275824118</internalNodes>
          <leafValues>
            -2.9929193854331970e-01 3.6811101436614990e-01</leafValues></_>
        <_>
          <internalNodes>
            0 -1 10 -1355815121 1877982127 -830593306 -184549522
            1970239099 1702363071 -42240081 -134219777</internalNodes>
          <leafValues>
            -3.0243739485740662e-01 3.4885558485984802e-01</leafValues></_>
        <_>
          <internalNodes>
            0 -1 132 -492052222 -541336318 -1846282377 -620510958
            -877733441 -893656706 -490013969 1107746818</internalNodes>
          <leafValues>
            -4.3659803271293640e-01 2.3309104144573212e-01</leafValues></_>
        <_>
          <internalNodes>
            0 -1 46 -13959374 -551758030 2133066240 1059699624
            1594398648 1008751024 -577498712 -263441</internalNodes>
          <leafValues>
            -3.2053592801094055e-01 3.0849483609199524e-01</leafValues></_>
        <_>
          <internalNodes>
            0 -1 143 -1414322373 195263284 -1348273901 -1415343359
            20970813 -1917862959 -1342178308 -1379926477</internalNodes>
          <leafValues>
            -3.1874653697013855e-01 3.1185933947563171e-01</leafValues></_>
        <_>
          <internalNodes>
            0 -1 140 -79954504 1026088735 -643853000 529594724 273447932
            106207386 -274041440 792712927</internalNodes>
          <leafValues>
            -3.5853803157806396e-01 2.8547570109367371e-01</leafValues></_>
        <_>
          <internalNodes>
            0 -1 157 184545039 176919511 -588197223 -1595429199
            1810620734 -934555461 -2641016 -1157693445</internalNodes>
          <leafValues>
            -3.8131272792816162e-01 2.3793785274028778e-01</leafValues></_>
        <_>
          <internalNodes>
            0 -1 88 -750534381 -721345120 -1250436741 -146541184
            -270604294 -15031914 -305662005 -672663741</internalNodes>
          <leafValues>
            -2.1938635408878326e-01 4.3157151341438293e-01</leafValues></_>
        <_>
          <internalNodes>
            0 -1 25 -498457864 -76373294 1972051927 995099504
            -1043128895 -20223045 -370443585 -268475870</internalNodes>
          <leafValues>
            -3.3148765563964844e-01 2.9289075732231140e-01</leafValues></_>
        <_>
          <internalNodes>
            0 -1 20 1374010340 2107323391 1972615118 -14314545
            -138778645 1927443454 -156894485 1166666382</internalNodes>
          <leafValues>
            -3.8651987910270691e-01 2.3576225340366364e-01</leafValues></_>
        <_>
          <internalNodes>
            0 -1 112 -136399880 1594987202 1620384820 1060184728
            792200424 463242216 177214172 2069459706</internalNodes>
          <leafValues>
            -4.8708668351173401e-01 2.0791652798652649e-01</leafValues></_>
        <_>
          <internalNodes>
            0 -1 118 -319118150 1070249086 -1989082956 420217836
            -1678863122 163201469 310773978 264205048</internalNodes>
          <leafValues>
            -4.5070958137512207e-01 2.1894362568855286e-01</leafValues></_>
        <_>
          <internalNodes>
            0 -1 47 -524158688 -1617709249 1472021887 -677929633
            -1312038657 -651202349 -389326081 17004042</internalNodes>
          <leafValues>
            -3.8883066177368164e-01 2.3807699978351593e-01</leafValues></_>
        <_>
          <internalNodes>
            0 -1 8 -270274989 -355745314 -1421958785 -456905566
            2003132287 1793840371 1736662909 1777694548</internalNodes>
          <leafValues>
            -3.7509381771087646e-01 2.5475081801414490e-01</leafValues></_>
        <_>
          <internalNodes>
            0 -1 127 -1292122302 1458071239 1352317634 849497112
            1670841100 71803460 -1812204654 1439162719</internalNodes>
          <leafValues>
            -5.3708952665328979e-01 1.9698898494243622e-01</leafValues></_>
        <_>
          <internalNodes>
            0 -1 48 86115840 -1074190881 -750579245 531866414 -842216021
            -2371041 -1215566401 -990884608</internalNodes>
          <leafValues>
            -4.7016599774360657e-01 2.1694010496139526e-01</leafValues></_>
        <_>
          <internalNodes>
            0 -1 33 -1540444676 1023806652 -1689498116 1070651197
            527979992 -1639682675 -906152532 -1699849162</internalNodes>
          <leafValues>
            -4.1852179169654846e-01 2.2278973460197449e-01</leafValues></_></weakClassifiers></_></stages>
  <features>
    <_>
      <rect>
        0 0 1 1</rect></_>
    <_>
      <rect>
        0 0 2 1</rect></_>
    <_>
      <rect>
        0 0 9 1</rect></_>
    <_>
      <rect>
        0 0 12 1</rect></_>
    <_>
      <rect>
        0 1 1 2</rect></_>
    <_>
      <rect>
        0 1 12 3</rect></_>
    <_>
      <rect>
        0 2 1 1</rect></_>
    <_>
      <rect>
        0 2 1 2</rect></_>
    <_>
      <rect>
        0 2 2 1</rect></_>
    <_>
      <rect>
        0 3 1 1</rect></_>
    <_>
      <rect>
        0 3 1 2</rect></_>
    <_>
      <rect>
        0 4 1 1</rect></_>
    <_>
      <rect>
        0 4 1 3</rect></_>
    <_>
      <rect>
        0 5 2 2</rect></_>
    <_>
      <rect>
        0 6 1 1</rect></_>
    <_>
      <rect>
        0 7 1 1</rect></_>
    <_>
      <rect>
        0 9 1 1</rect></_>
    <_>
      <rect>
        0 9 1 2</rect></_>
    <_>
      <rect>
        0 9 2 3</rect></_>
    <_>
      <rect>
        0 12 1 1</rect></_>
    <_>
      <rect>
        0 14 12 1</rect></_>
    <_>
      <rect>
        0 15 1 1</rect></_>
    <_>
      <rect>
        0 15 2 1</rect></_>
    <_>
      <rect>
        0 15 3 1</rect></_>
    <_>
      <rect>
        0 15 12 1</rect></_>
    <_>
      <rect>
        1 2 8 1</rect></_>
    <_>
      <rect>
        1 9 2 3</rect></_>
    <_>
      <rect>
        1 15 6 1</rect></_>
    <_>
      <rect>
        2 0 2 1</rect></_>
    <_>
      <rect>
        2 0 8 1</rect></_>
    <_>
      <rect>
        2 1 7 2</rect></_>
    <_>
      <rect>
        2 2 7 1</rect></_>
    <_>
      <rect>
        2 15 2 1</rect></_>
    <_>
      <rect>
        2 15 6 1</rect></_>
    <_>
      <rect>
        2 15 8 1</rect></_>
    <_>
      <rect>
        3 2 10 2</rect></_>
    <_>
      <rect>
        3 7 7 3</rect></_>
    <_>
      <rect>
        4 0 3 1</rect></_>
    <_>
      <rect>
        4 0 8 1</rect></_>
    <_>
      <rect>
        4 1 2 2</rect></_>
    <_>
      <rect>
        4 1 9 2</rect></_>
    <_>
      <rect>
        5 0 1 3</rect></_>
    <_>
      <rect>
        5 1 1 1</rect></_>
    <_>
      <rect>
        5 4 5 1</rect></_>
    <_>
      <rect>
        5 4 7 1</rect></_>
    <_>
      <rect>
        5 8 8 3</rect></_>
    <_>
      <rect>
        5 9 1 3</rect></_>
    <_>
      <rect>
        6 0 1 1</rect></_>
    <_>
      <rect>
        6 0 4 1</rect></_>
    <_>
      <rect>
        6 1 8 1</rect></_>
    <_>
      <rect>
        6 2 4 2</rect></_>
    <_>
      <rect>
        6 15 1 1</rect></_>
    <_>
      <rect>
        7 0 2 1</rect></_>
    <_>
      <rect>
        7 3 5 1</rect></_>
    <_>
      <rect>
        7 4 8 1</rect></_>
    <_>
      <rect>
        7 9 8 2</rect></_>
    <_>
      <rect>
        8 3 1 3</rect></_>
    <_>
      <rect>
        8 11 2 2</rect></_>
    <_>
      <rect>
        8 14 7 1</rect></_>
    <_>
      <rect>
        9 0 1 3</rect></_>
    <_>
      <rect>
        9 15 3 1</rect></_>
    <_>
      <rect>
        10 0 1 3</rect></_>
    <_>
      <rect>
        10 0 1 4</rect></_>
    <_>
      <rect>
        10 0 5 2</rect></_>
    <_>
      <rect>
        10 1 3 2</rect></_>
    <_>
      <rect>
        10 9 1 1</rect></_>
    <_>
      <rect>
        10 15 8 1</rect></_>
    <_>
      <rect>
        11 0 1 3</rect></_>
    <_>
      <rect>
        11 3 2 1</rect></_>
    <_>
      <rect>
        11 13 7 1</rect></_>
    <_>
      <rect>
        11 15 5 1</rect></_>
    <_>
      <rect>
        12 3 6 1</rect></_>
    <_>
      <rect>
        12 9 1 3</rect></_>
    <_>
      <rect>
        12 15 1 1</rect></_>
    <_>
      <rect>
        13 0 1 3</rect></_>
    <_>
      <rect>
        13 0 1 4</rect></_>
    <_>
      <rect>
        13 0 6 1</rect></_>
    <_>
      <rect>
        13 3 1 3</rect></_>
    <_>
      <rect>
        13 8 1 3</rect></_>
    <_>
      <rect>
        13 15 3 1</rect></_>
    <_>
      <rect>
        14 0 1 4</rect></_>
    <_>
      <rect>
        14 0 4 1</rect></_>
    <_>
      <rect>
        14 1 7 2</rect></_>
    <_>
      <rect>
        14 3 2 2</rect></_>
    <_>
      <rect>
        14 3 3 1</rect></_>
    <_>
      <rect>
        14 4 5 1</rect></_>
    <_>
      <rect>
        14 9 1 3</rect></_>
    <_>
      <rect>
        15 3 4 1</rect></_>
    <_>
      <rect>
        15 4 1 2</rect></_>
    <_>
      <rect>
        15 10 2 1</rect></_>
    <_>
      <rect>
        16 3 3 1</rect></_>
    <_>
      <rect>
        16 3 6 1</rect></_>
    <_>
      <rect>
        17 11 2 2</rect></_>
    <_>
      <rect>
        17 12 2 2</rect></_>
    <_>
      <rect>
        18 0 1 4</rect></_>
    <_>
      <rect>
        18 0 4 1</rect></_>
    <_>
      <rect>
        18 3 1 3</rect></_>
    <_>
      <rect>
        19 0 1 4</rect></_>
    <_>
      <rect>
        19 2 1 4</rect></_>
    <_>
      <rect>
        19 8 2 1</rect></_>
    <_>
      <rect>
        19 9 1 1</rect></_>
    <_>
      <rect>
        19 9 1 3</rect></_>
    <_>
      <rect>
        19 15 2 1</rect></_>
    <_>
      <rect>
        20 0 1 3</rect></_>
    <_>
      <rect>
        20 1 1 3</rect></_>
    <_>
      <rect>
        20 7 1 3</rect></_>
    <_>
      <rect>
        20 13 3 1</rect></_>
    <_>
      <rect>
        21 0 1 3</rect></_>
    <_>
      <rect>
        21 2 3 1</rect></_>
    <_>
      <rect>
        21 3 1 3</rect></_>
    <_>
      <rect>
        21 5 1 2</rect></_>
    <_>
      <rect>
        21 7 1 3</rect></_>
    <_>
      <rect>
        21 8 1 3</rect></_>
    <_>
      <rect>
        21 11 1 2</rect></_>
    <_>
      <rect>
        22 3 1 3</rect></_>
    <_>
      <rect>
        22 6 1 3</rect></_>
    <_>
      <rect>
        22 7 1 3</rect></_>
    <_>
      <rect>
        22 10 1 1</rect></_>
    <_>
      <rect>
        22 10 1 2</rect></_>
    <_>
      <rect>
        22 11 2 2</rect></_>
    <_>
      <rect>
        23 0 4 1</rect></_>
    <_>
      <rect>
        23 1 1 4</rect></_>
    <_>
      <rect>
        23 7 1 3</rect></_>
    <_>
      <rect>
        23 9 1 3</rect></_>
    <_>
      <rect>
        24 0 1 4</rect></_>
    <_>
      <rect>
        24 1 1 3</rect></_>
    <_>
      <rect>
        24 6 1 4</rect></_>
    <_>
      <rect>
        24 7 2 1</rect></_>
    <_>
      <rect>
        25 3 1 2</rect></_>
    <_>
      <rect>
        25 7 1 3</rect></_>
    <_>
      <rect>
        25 9 1 3</rect></_>
    <_>
      <rect>
        26 0 1 1</rect></_>
    <_>
      <rect>
        26 3 1 3</rect></_>
    <_>
      <rect>
        26 8 1 2</rect></_>
    <_>
      <rect>
        26 10 1 2</rect></_>
    <_>
      <rect>
        26 11 2 2</rect></_>
    <_>
      <rect>
        27 0 1 4</rect></_>
    <_>
      <rect>
        27 1 1 2</rect></_>
    <_>
      <rect>
        27 1 1 3</rect></_>
    <_>
      <rect>
        27 9 1 3</rect></_>
    <_>
      <rect>
        27 15 3 1</rect></_>
    <_>
      <rect>
        28 0 1 4</rect></_>
    <_>
      <rect>
        28 0 2 1</rect></_>
    <_>
      <rect>
        28 1 1 1</rect></_>
    <_>
      <rect>
        28 8 1 3</rect></_>
    <_>
      <rect>
        29 6 1 4</rect></_>
    <_>
      <rect>
        30 0 2 4</rect></_>
    <_>
      <rect>
        30 9 2 1</rect></_>
    <_>
      <rect>
        30 9 2 3</rect></_>
    <_>
      <rect>
        30 12 2 2</rect></_>
    <_>
      <rect>
        30 15 2 1</rect></_>
    <_>
      <rect>
        31 0 1 1</rect></_>
    <_>
      <rect>
        31 0 1 4</rect></_>
    <_>
      <rect>
        33 0 1 1</rect></_>
    <_>
      <rect>
        33 1 1 2</rect></_>
    <_>
      <rect>
        33 1 1 3</rect></_>
    <_>
      <rect>
        33 2 1 1</rect></_>
    <_>
      <rect>
        33 2 1 2</rect></_>
    <_>
      <rect>
        33 4 1 2</rect></_>
    <_>
      <rect>
        33 6 1 1</rect></_>
    <_>
      <rect>
        33 6 1 2</rect></_>
    <_>
      <rect>
        33 7 1 2</rect></_>
    <_>
      <rect>
        33 10 1 1</rect></_>
    <_>
      <rect>
        33 11 1 1</rect></_>
    <_>
      <rect>
        33 12 1 1</rect></_>
    <_>
      <rect>
        33 13 1 1</rect></_>
    <_>
      <rect>
        33 15 1 1</rect></_></features></cascade>
</opencv_storage>
