<?xml version="1.0"?>
<opencv_storage>
<cascade>
  <stageType>BOOST</stageType>
  <featureType>LBP</featureType>
  <height>19</height>
  <width>14</width>
  <stageParams>
    <boostType>GAB</boostType>
    <minHitRate>9.9500000476837158e-01</minHitRate>
    <maxFalseAlarm>4.4999998807907104e-01</maxFalseAlarm>
    <weightTrimRate>9.4999999999999996e-01</weightTrimRate>
    <maxDepth>1</maxDepth>
    <maxWeakCount>100</maxWeakCount></stageParams>
  <featureParams>
    <maxCatCount>256</maxCatCount>
    <featSize>1</featSize></featureParams>
  <stageNum>5</stageNum>
  <stages>
    <!-- stage 0 -->
    <_>
      <maxWeakCount>3</maxWeakCount>
      <stageThreshold>-1.6560821533203125e+00</stageThreshold>
      <weakClassifiers>
        <_>
          <internalNodes>
            0 -1 6 -68158465 -171584065 -616038401 -547621921 -74458113
            -142220613 -1049601 -1</internalNodes>
          <leafValues>
            -9.8722314834594727e-01 2.8440368175506592e-01</leafValues></_>
        <_>
          <internalNodes>
            0 -1 11 -1 -139365 -677380609 -11305 -53683971 -611612515
            -17039361 -1</internalNodes>
          <leafValues>
            -9.6618318557739258e-01 6.3507533073425293e-01</leafValues></_>
        <_>
          <internalNodes>
            0 -1 12 -738199553 -136316453 -888814697 1599590855
            1396955871 1124843659 2000943711 -1</internalNodes>
          <leafValues>
            -9.7430264949798584e-01 6.4486217498779297e-01</leafValues></_></weakClassifiers></_>
    <!-- stage 1 -->
    <_>
      <maxWeakCount>3</maxWeakCount>
      <stageThreshold>-2.0106489658355713e+00</stageThreshold>
      <weakClassifiers>
        <_>
          <internalNodes>
            0 -1 4 -1 -740819969 -100672001 -3105 -236454674 -708604705
            -3585 -17</internalNodes>
          <leafValues>
            -9.8498499393463135e-01 -9.0909093618392944e-02</leafValues></_>
        <_>
          <internalNodes>
            0 -1 3 -1 -198148 -744492037 -1 -33554433 -71765506 -2098177
            -1</internalNodes>
          <leafValues>
            -9.6565687656402588e-01 3.9879173040390015e-01</leafValues></_>
        <_>
          <internalNodes>
            0 -1 9 -269488145 -1 -806367745 -1 -335807746 -3415093
            -1311745 -1</internalNodes>
          <leafValues>
            -9.5408302545547485e-01 5.7068794965744019e-01</leafValues></_></weakClassifiers></_>
    <!-- stage 2 -->
    <_>
      <maxWeakCount>3</maxWeakCount>
      <stageThreshold>-1.8584452867507935e+00</stageThreshold>
      <weakClassifiers>
        <_>
          <internalNodes>
            0 -1 1 -1 -2097665 -1179649 -2097153 -4259841 -4196097
            -67436545 -65537</internalNodes>
          <leafValues>
            -9.7959619760513306e-01 3.9999999105930328e-02</leafValues></_>
        <_>
          <internalNodes>
            0 -1 10 -137375537 -2097169 -67108865 -273 -3149825
            -67380241 -1049601 -1</internalNodes>
          <leafValues>
            -9.5137256383895874e-01 2.8972899913787842e-01</leafValues></_>
        <_>
          <internalNodes>
            0 -1 8 871391191 -1076103169 -167772161 -12615683 -16811009
            -6291457 -4194305 -4129</internalNodes>
          <leafValues>
            -9.4707274436950684e-01 5.0961536169052124e-01</leafValues></_></weakClassifiers></_>
    <!-- stage 3 -->
    <_>
      <maxWeakCount>4</maxWeakCount>
      <stageThreshold>-2.2015304565429688e+00</stageThreshold>
      <weakClassifiers>
        <_>
          <internalNodes>
            0 -1 15 -1 -8289 -2105357 -33 -17 -67115525 -69733470 -1025</internalNodes>
          <leafValues>
            -9.8284000158309937e-01 -1.6083915531635284e-01</leafValues></_>
        <_>
          <internalNodes>
            0 -1 5 -32529 -16385 1073721343 -8257 -5243393 -24321
            -3145729 -2101505</internalNodes>
          <leafValues>
            -9.4702541828155518e-01 2.1447306871414185e-01</leafValues></_>
        <_>
          <internalNodes>
            0 -1 16 -134217729 -2166785 -137101314 -9439250 -4194323
            -68886851 -67242064 -8388609</internalNodes>
          <leafValues>
            -9.0511053800582886e-01 5.1838994026184082e-01</leafValues></_>
        <_>
          <internalNodes>
            0 -1 0 -2097409 -196642 -609035041 -86573569 -67441153
            -5440577 -2171905 -16842753</internalNodes>
          <leafValues>
            -8.9764344692230225e-01 6.3344556093215942e-01</leafValues></_></weakClassifiers></_>
    <!-- stage 4 -->
    <_>
      <maxWeakCount>4</maxWeakCount>
      <stageThreshold>-2.3668303489685059e+00</stageThreshold>
      <weakClassifiers>
        <_>
          <internalNodes>
            0 -1 13 -136316929 -1 -2108417 -8193 -1025 -262725 -68157441
            -1</internalNodes>
          <leafValues>
            -9.7181916236877441e-01 3.1999999284744263e-01</leafValues></_>
        <_>
          <internalNodes>
            0 -1 14 -134218801 1557522943 1930231759 -3073 -2621441
            -972707878 -268440577 -1</internalNodes>
          <leafValues>
            -9.3941110372543335e-01 2.9450184106826782e-01</leafValues></_>
        <_>
          <internalNodes>
            0 -1 2 -983564305 -672661505 1430639324 -134227969
            -716312101 1372446907 1434451454 -673185793</internalNodes>
          <leafValues>
            -9.4378626346588135e-01 4.2102909088134766e-01</leafValues></_>
        <_>
          <internalNodes>
            0 -1 7 -1 -178978836 -260046849 -139265 -83903489 -134938690
            -1045 -257</internalNodes>
          <leafValues>
            -8.7662917375564575e-01 6.1618727445602417e-01</leafValues></_></weakClassifiers></_></stages>
  <features>
    <_>
      <rect>
        0 14 1 1</rect></_>
    <_>
      <rect>
        1 15 3 1</rect></_>
    <_>
      <rect>
        2 3 1 4</rect></_>
    <_>
      <rect>
        2 4 2 5</rect></_>
    <_>
      <rect>
        2 6 1 2</rect></_>
    <_>
      <rect>
        3 7 1 1</rect></_>
    <_>
      <rect>
        4 6 1 2</rect></_>
    <_>
      <rect>
        4 8 1 1</rect></_>
    <_>
      <rect>
        5 1 2 1</rect></_>
    <_>
      <rect>
        5 6 1 1</rect></_>
    <_>
      <rect>
        6 1 1 4</rect></_>
    <_>
      <rect>
        6 8 2 1</rect></_>
    <_>
      <rect>
        7 2 1 4</rect></_>
    <_>
      <rect>
        7 2 2 1</rect></_>
    <_>
      <rect>
        9 4 1 3</rect></_>
    <_>
      <rect>
        11 7 1 3</rect></_>
    <_>
      <rect>
        11 12 1 2</rect></_></features></cascade>
</opencv_storage>
